-0.49025744	-0.3737918	-0.093624234	0.08689181	0.36912578	0.028402647	0.79252017	0.07164625	-2.0241525	0.5550489	-0.24200407	-0.25868437	-0.10576237	0.23222084	-0.9632738	-0.63253266
-0.70634395	-0.045283224	0.15981777	0.45509735	-0.44526482	0.87985647	0.3371653	-0.87053764	-1.0493026	0.06525335	0.018551081	0.560645	0.31942192	0.65066004	-0.14966975	-0.30621168
-0.085912496	-0.011695607	-0.67113274	-0.02697619	-0.26553378	0.6222686	0.5539644	-0.5114027	-1.0888355	-0.5464229	0.25535867	-0.16020852	-0.21533166	-0.11288015	0.055955015	0.28995964
0.016214231	-0.17146967	0.06360202	0.16095658	0.18787363	-0.29342574	-0.12505886	0.22884208	-0.29649732	-0.006733689	-0.21473241	-0.09215334	0.15992483	0.11350538	-0.010278078	-0.2988004
0.5341161	0.42583	0.16413367	0.21988912	-0.47497523	-0.39360023	0.49345616	0.29211074	-0.0048176385	0.23884082	0.59152865	-0.50311905	-0.03407803	0.120093144	0.30167705	0.1765735
0.13230783	-0.56543314	-1.724629	-1.3922	0.61977154	0.65732384	0.46556655	-0.21492541	-0.96338046	-1.3094826	0.09439383	-0.44013366	-1.0726895	-1.134563	-0.55862147	0.72647196
-0.28150555	0.2524887	0.070507996	-0.0054231375	-0.12878181	0.29431036	0.27529043	-0.2591296	-0.13054766	0.22810633	0.12060761	0.13452362	-0.1307211	0.008571354	-0.2722897	0.088196054
0.45988104	-0.14732796	-0.20261313	-0.7900532	0.9199056	-0.94558835	-0.19450107	0.8606356	0.58955336	0.32273445	-0.2531486	-0.5362607	-0.55225486	-0.7857642	-0.70073265	0.067943744
-0.095587395	-0.28695402	-0.20960546	-0.41793242	0.5472239	-0.13689744	-0.12856604	0.21737513	-0.051584393	-0.014594958	-0.3270423	-0.019558385	-0.3008564	-0.4121222	-0.49448875	-0.08024329
-1.3761408	-0.46427715	-0.09469775	-0.63450795	0.989353	0.6656708	-0.7588592	-0.5650898	-0.21476671	-0.0343832	-1.0049791	1.180358	0.051529564	-0.22018589	-1.4251418	-0.75530547
-0.40171406	-0.18523361	-0.23372813	-0.334992	0.27651116	0.44849968	-0.037338343	-0.26520666	-0.40183476	-0.1217581	-0.27212912	0.20985214	-0.20599203	-0.14876339	-0.5730892	-0.018919237
0.04233351	0.22195415	0.15722977	-0.16459051	-0.061264582	-0.0012826385	0.2848275	0.02477905	0.16551018	0.42850354	0.15136807	-0.07607575	-0.29540566	-0.09350972	-0.328288	0.16934744
1.0001732	0.043960776	0.46212807	0.1882548	0.2776471	-1.5937427	-0.32655668	1.3453014	0.768485	0.6576578	-0.09763526	-0.84685934	0.06940678	-0.123036176	0.25708845	-0.22143039
-0.33386043	-0.20314974	0.2433032	0.2744917	0.0885362	0.10614621	-0.22523229	-0.14653063	-0.3513012	0.10468149	-0.32389778	0.30995482	0.3444272	0.3408314	-0.07356927	-0.48407137
0.06654904	0.24141774	0.6213085	1.0086333	-0.79985356	-0.08106432	0.15659021	-0.1361699	-0.50410014	0.33398882	0.39372393	0.08959921	0.73668426	0.888734	0.66598135	-0.5332442
0.1727015	0.18357404	0.45729178	0.3085174	-0.25222608	-0.35983893	0.20175293	0.26299956	0.117987	0.4582286	0.12320283	-0.15939365	0.18659163	0.22546555	0.12301232	-0.22439907
0.31813064	-1.0631391	-1.793302	-0.92843735	0.79246247	0.3396187	0.13571893	0.23424795	-1.3874868	-1.9774593	-0.07114997	-0.6272637	-0.5649537	-0.8156834	0.69530714	0.44055504
-0.20545664	-0.45994148	0.41396847	0.39992738	0.29097235	-0.40148264	-0.6918992	0.33344376	-0.15505962	0.06196708	-0.6530232	0.21116124	0.5878982	0.45205495	0.10052134	-0.7837851
0.068467684	-0.04605792	-0.059259444	0.17288458	-0.21682832	0.014984071	0.26306066	-0.052740987	-0.5102066	-0.07042044	0.13326861	-0.18277018	0.10051476	0.209786	0.20245415	0.042866446
0.29195565	0.16164793	-0.020603122	-0.17672831	-0.043767255	-0.2087688	0.32828623	0.18551794	-0.0031617193	0.1482924	0.21290031	-0.35276657	-0.22112112	-0.17188604	-0.12153053	0.13761835
0.041543286	-0.19641156	0.048596203	0.31246656	0.024968434	-0.31498107	-0.21694885	0.28275588	-0.2724602	-0.14811002	-0.15472451	-0.0765775	0.31377622	0.24145374	0.3013446	-0.29540828
0.29450193	0.15883549	-1.0895164	-1.2078477	0.16704166	0.38525146	0.6987033	-0.22345933	-0.39560342	-0.37484482	0.46458614	-0.48316613	-1.1372293	-1.1032478	-0.59736603	0.84505856
-0.5756052	-0.07869863	-0.14625938	-0.051763136	0.11019775	0.6070119	0.018199543	-0.59657097	-0.36826128	-0.100178	-0.19040982	0.44634408	-0.010886809	0.10763395	-0.39563	-0.03553074
-0.4135969	0.185351	0.39140564	-0.69333494	0.066998966	0.2809607	0.38053346	-0.17583069	0.0068538287	0.7075523	-0.013491308	0.07665087	-0.5151234	-0.35036972	-0.7429348	0.024041822
0.02043865	0.29874423	0.13677055	-0.08282448	-0.18216023	0.11214532	0.29017523	-0.15091461	0.07595025	0.290982	0.27895737	-0.00923768	-0.16759224	-0.10012192	-0.20505688	0.17373946
0.04230722	0.08163071	0.3153965	0.556336	-0.32068235	-0.20239982	-0.012937688	0.12871274	-0.09629703	0.24159567	0.1793477	0.008963345	0.43727854	0.4890624	0.37513795	-0.3031034
0.2080999	-0.33344805	-0.42108688	-0.29523823	0.4381884	-0.36823353	-0.07364182	0.35239953	-0.15172003	-0.23808768	-0.14744489	-0.28677318	-0.1988991	-0.30956352	-0.032284833	0.004695003
0.28524026	0.13965099	-0.02300234	0.025836881	-0.20212558	-0.27875176	0.23397738	0.2574627	-0.055974912	0.11415543	0.21226634	-0.31678882	-0.12539738	-0.026007524	0.06425366	0.060913585
-1.704921	1.4435148	1.6286967	-1.1430109	-1.0086116	1.5710033	1.4422084	-1.3732282	0.87488574	1.7969586	1.1855451	1.3096071	-1.5235628	-0.39983392	-1.9671894	0.932119
-0.04834577	0.26543707	0.18482938	0.3904021	-0.49440742	0.2452021	0.24540493	-0.31469026	-0.27600932	0.21462794	0.26853117	0.13220775	0.13571125	0.3546287	0.17087124	-0.057754107
0.10206299	-0.060245167	-0.087748416	-0.08626713	0.24066469	-0.31353262	-0.15503596	0.23841853	0.19151255	0.13718185	-0.12990984	-0.06578603	-0.013629242	-0.14914307	-0.17267717	-0.046383124
-1.1100303	1.337533	1.4533825	-0.7114627	-0.30663586	0.6784259	0.8391834	-0.7541608	1.3869236	1.6921835	0.741214	0.9689503	-1.3398792	-0.32764834	-1.9727468	0.6966583
1.0806702	-0.39318988	0.7756544	0.23063225	0.4182249	-1.5934948	-1.1186765	1.3599734	0.9020745	0.90062386	-0.6805182	-0.80745643	0.38132775	0.1396405	0.20761845	-0.8968482
0.16934256	-0.051614117	-0.39205748	-0.5793736	0.42147678	-0.2262254	0.031122958	0.30470446	-0.0132268015	-0.11149189	-0.011932505	-0.26349396	-0.50550395	-0.5859248	-0.4452743	0.21650945
0.12448663	0.29316473	0.41511106	0.00094457733	-0.027904563	-0.33612317	0.105021834	0.23196393	0.42766544	0.5684931	0.12194306	-0.112098604	-0.034037095	-0.05364731	-0.13366452	-0.04279683
-0.20972912	-0.38650468	-0.6980227	-0.47384304	0.41328442	0.40031388	-0.037680954	-0.1989555	-0.5339222	-0.48037627	-0.19658355	0.071038835	-0.2645565	-0.40585694	-0.44617864	0.102397405
1.3909734	-0.23526525	-1.6398677	-1.2159033	-0.38534817	-0.82509863	1.3558121	1.1243513	-0.9112247	-1.6385356	1.1896231	-1.4684086	-1.3412385	-1.3225346	1.2381297	1.2376907
0.10955304	-0.124124795	0.038940523	0.06272984	0.106160164	-0.29729635	-0.08777172	0.26307967	-0.18240392	-0.020213677	-0.064885646	-0.16014837	0.11702695	0.0453739	0.0506601	-0.19280155
0.06391675	0.80859137	0.3076838	-0.06194964	-0.44757625	0.12205444	0.6843347	-0.16607963	0.5612442	0.75301534	0.5740356	-0.036637988	-0.40750244	-0.086704746	-0.40526855	0.30389687
0.11062697	-0.21143858	0.45874754	0.63383204	-0.16466933	-0.45494267	-0.40239257	0.37232918	-0.26532003	0.10912154	-0.23164946	-0.078281716	0.6520651	0.55337614	0.4627079	-0.653085
0.22348408	-0.06457059	0.22530115	0.2379517	-0.07483805	-0.4576523	-0.09690587	0.36646807	0.018275382	0.16215798	-0.01785795	-0.20531707	0.15614066	0.22769302	0.17633344	-0.20234784
-0.052137867	0.20293011	0.028553622	-0.015613183	-0.22894004	0.2096033	0.36752895	-0.17260335	-0.20260489	0.200258	0.24980292	0.015530821	-0.10267769	0.047530644	-0.10036191	0.12843695
-0.019840378	-0.038552944	0.41096523	0.53331935	-0.34353626	-0.14291444	-0.059928104	0.101702884	-0.2470274	0.1389984	0.01925442	-0.009451835	0.4792036	0.54958045	0.40043652	-0.3875262
-0.28665012	-0.40239504	0.13703747	0.4202626	0.083713785	-0.055771913	-0.3790047	-0.0024417797	-0.40413103	-0.10075912	-0.35607284	0.22658126	0.54388666	0.47246972	0.14839359	-0.5513197
-0.22135617	0.036707	0.367075	0.38689327	-0.11024939	-0.04041414	-0.14680712	-0.013888396	0.010920006	0.29638657	-0.16108343	0.25765947	0.45564696	0.4143335	0.07345132	-0.48175597
0.327012	-0.35134244	0.20936306	-0.08117067	0.5075738	-0.85032064	-0.51289165	0.8609058	0.36624885	0.23275226	-0.43599764	-0.3531438	0.04345266	-0.12579347	-0.06367596	-0.3717175
0.16428098	-0.027889064	0.3182324	0.40573785	-0.11434463	-0.4586931	-0.05855639	0.29794738	-0.025479626	0.18072739	0.005374062	-0.22532994	0.36566934	0.30615434	0.31984767	-0.31722397
-0.73990357	-0.94904566	-1.2122762	-0.7654314	1.1219848	0.5005282	-1.0034149	-0.1441193	-0.8407469	-1.057291	-0.92948884	0.616643	0.356778	-0.34488818	-0.734431	-0.5699169
-0.9931849	-0.8423185	-0.85085505	-0.5548139	1.0072423	0.67556745	-0.95722854	-0.36653143	-0.64984936	-0.79415286	-0.9535687	0.8947362	0.39915144	-0.13203467	-0.85848904	-0.6796896
-0.5122922	-0.64444363	-0.69043124	-0.11669282	0.60962856	0.5194372	-0.39231053	-0.36894965	-0.7609883	-0.7450363	-0.54927665	0.38895872	0.22739634	0.026839294	-0.12693699	-0.26449868
0.56145376	-0.09098786	-0.5482494	-0.1518318	0.017571256	-0.40395322	0.2880258	0.41350845	-0.29437006	-0.47118935	0.26547545	-0.6387799	-0.30860505	-0.31420016	0.39980236	0.33312297
0.25230432	0.432814	0.0624055	0.08844505	-0.29545882	-0.15348859	0.47793034	0.09254316	0.16157575	0.2379221	0.5509627	-0.24896887	-0.12740716	0.0393639	0.05219325	0.24120887
-0.04197432	-0.12883197	0.50107414	0.6206495	-0.2017183	-0.4028268	-0.40234706	0.19199343	-0.10443605	0.21457562	-0.23414071	0.16826268	0.6235317	0.59231013	0.3095445	-0.6941442
-0.18254341	0.29710516	0.68424296	0.5986021	-0.3587925	-0.15509033	-0.09333872	-0.017622087	0.1456392	0.6193972	0.059132975	0.2918868	0.5486979	0.5431323	0.18432198	-0.5205965
1.1971526	0.05934954	-1.267588	-1.1748624	-0.28976694	-0.81038785	1.197673	1.0282304	-0.5825203	-1.0223556	1.0714599	-1.2674783	-1.2888062	-1.1808285	0.5466155	1.0861089
-0.106732756	-0.4136086	-0.15474395	0.26493058	0.19921798	-0.0866511	-0.29613754	0.090277925	-0.4680154	-0.44889438	-0.3177037	0.07084375	0.38604853	0.22155204	0.23950675	-0.29782858
-0.012811737	-0.1489089	-0.46381554	-0.045780342	0.08115072	0.2224192	0.055257156	-0.15235555	-0.31086084	-0.3714274	0.015899487	0.0005153507	-0.05766014	-0.074761115	0.14951177	0.14214107
-0.8681129	-0.2767894	-0.06715423	-0.30319363	0.57649827	0.51473016	-0.5324884	-0.3613253	-0.17618966	-0.0147374	-0.5866443	0.852107	0.09741843	-2.6569514e-05	-0.88591266	-0.5797444
1.1314881	-0.14945328	-1.3365657	-1.0553542	-0.2788963	-0.41597152	1.0889901	0.8763711	-0.7991897	-1.4219114	0.9540811	-1.1703134	-1.1396527	-1.0664535	0.8605607	1.0757031
-0.06317832	-0.4247889	-0.31619895	0.13219842	0.23516366	-0.13721454	-0.33266073	0.2092447	-0.33334428	-0.36123368	-0.29983595	0.01957906	0.27778378	0.08145193	0.17633615	-0.21955188
0.022150416	0.13984253	0.99020755	1.1470903	-0.93190426	-0.35173467	-0.06917427	0.1684987	-0.5828478	0.56584406	0.3417852	0.15481721	1.0301061	1.1290958	0.80472946	-0.9170598
-1.2319264	1.1931809	1.0886346	-0.8961586	-0.58101803	1.1407728	0.99039376	-1.1252505	0.9833289	1.42918	0.7577907	1.098402	-1.1787364	-0.38744503	-1.7834568	0.6736385
0.58688813	-0.8207318	0.55140066	0.0475411	0.75742507	-1.3821657	-1.5903367	1.3192619	0.69705665	0.47166023	-1.1679145	-0.54939157	0.36782944	-0.098437116	-0.000978526	-1.0127225
-0.3613673	0.33000112	0.7825899	0.56164986	-0.61763424	0.18787716	0.3364195	-0.31798893	-0.31494462	0.59100544	0.31769922	0.3608598	0.41784552	0.64418393	0.14187263	-0.4603815
0.39358792	0.16309531	0.24917251	0.48645034	-0.5496715	-0.34848514	0.30359453	0.13950218	-0.3449004	0.07369061	0.50885534	-0.24170744	0.264484	0.3543344	0.5713162	-0.07963516
0.62591594	-0.33020025	0.06998521	0.9177758	-0.7916276	-0.47991884	0.065014794	0.5219088	-1.084774	-0.5931714	0.3587646	-0.44388384	0.62102824	0.6578399	1.0774373	-0.40294158
-0.045772124	0.046265338	0.27842638	0.19627587	-0.015189941	-0.15050186	-0.15901434	0.10404788	0.10382457	0.2653357	-0.11228206	0.08138477	0.22331601	0.24080229	-0.042342138	-0.28336385
-1.0726124	-1.4439875	-1.2229106	-0.3819766	1.5589423	0.4254377	-1.6946758	-0.1580198	-0.9410711	-1.2517786	-1.5734847	1.0880078	0.9869668	0.074984856	-0.58744293	-1.208278
-0.46379203	0.21866189	0.08650168	-0.8337235	0.40994737	0.31158623	0.08115488	-0.32762808	0.29321676	0.38550147	-0.16999248	0.2805877	-0.57732886	-0.62095636	-1.2673687	0.13150677
0.016316114	-0.5599836	-0.47169307	-0.13087581	0.34656852	-0.034742273	-0.27516583	0.16249603	-0.5100773	-0.47759855	-0.3572597	-0.13689111	0.058993194	-0.09812225	0.030412732	-0.13058184
0.23982163	-0.45648515	-0.69193286	-0.020871336	0.110938504	0.051694185	0.10054075	0.04579694	-0.6401801	-0.85366815	0.05488634	-0.30886486	-0.118143864	-0.17198841	0.4202191	0.17323832
0.107954666	0.3735993	0.73153394	0.5263388	-0.43023875	-0.31948912	0.148604	0.096056916	0.19671157	0.82230914	0.26600233	-0.047760084	0.36891896	0.42816526	0.10395013	-0.3451248
-0.0556464	-0.2740595	-0.13914874	0.07898034	0.13675672	-0.11453291	-0.085025325	0.104659274	-0.24621652	-0.15087277	-0.18104699	-0.02109154	0.13090555	0.091503516	0.022832554	-0.18431337
0.091063455	0.10302742	0.3473515	-0.17603213	0.09490425	-0.3140449	0.14943461	0.23058952	0.31741664	0.5832257	-0.029950118	-0.17261009	-0.15984288	-0.085699156	-0.2807571	-0.037120167
0.2484178	0.25985983	-0.53635293	-0.40281996	-0.29277188	0.3774717	0.6696045	-0.2128758	-0.34307045	-0.30009702	0.5527496	-0.33427104	-0.5196707	-0.38710216	-0.018078817	0.52345616
-0.19176236	-0.28684413	0.17577313	0.31772488	0.062033266	-0.20377468	-0.40851375	0.1406168	-0.15740529	-0.039382022	-0.33005232	0.17242298	0.4139148	0.26268026	0.15339983	-0.54515076
0.017389374	-0.16421634	-0.2450898	-0.399891	0.32884297	-0.056521628	-0.015965074	0.102643274	0.009329703	-0.060097903	-0.25749043	-0.037634943	-0.21149236	-0.37250695	-0.3546756	0.106084496
0.75019073	-0.28814995	-0.17793462	-0.6695819	0.74575	-1.005525	-0.32699588	1.0742687	0.3865258	0.11252285	-0.2604087	-0.8832011	-0.47589928	-0.69598407	-0.28925106	0.07068205
0.9675784	0.15542345	-0.98812157	-0.6516272	-0.633008	-0.3911285	1.0691203	0.6050649	-0.6540905	-0.98485225	0.9475083	-1.0289034	-1.0144984	-0.879135	0.7050783	0.88214886
0.12512837	0.33524632	0.3663127	0.5136199	-0.51433146	-0.10420188	0.1131263	-0.019871738	0.012214532	0.33339283	0.2711414	0.0012387619	0.30572146	0.41705903	0.34789148	-0.16038112
-0.2370456	0.288574	0.86693835	0.8022986	-0.59259814	0.014932266	0.037025664	-0.23997477	-0.06418328	0.54207706	0.16538486	0.4065962	0.68643135	0.8487634	0.30963495	-0.55822504
0.6028331	-0.39537367	-1.2623682	-0.65177023	-0.029006263	0.27442765	0.6444854	0.1811683	-1.1250459	-1.2864045	0.41569528	-0.6891444	-0.71137697	-0.68764704	0.699081	0.6827777
-0.5157971	-0.66143703	-0.6220234	0.12517208	0.32480088	0.6954426	-0.41481093	-0.5489879	-0.8628084	-0.8292728	-0.466826	0.5187371	0.44555393	0.26514295	0.08831534	-0.36800143
-0.1717508	-0.036033016	0.16965167	0.47612727	-0.22360352	0.11379058	-0.0941349	-0.21665102	-0.34103608	-0.023829615	-0.051054563	0.26893154	0.40214708	0.43530354	0.30100116	-0.33101034
-0.15621597	-0.61993206	-0.4585497	-0.38208535	0.6598122	-0.06871059	-0.4707976	0.20038009	-0.18245794	-0.42868242	-0.559314	0.103965454	-0.03697541	-0.22566882	-0.29963994	-0.20845759
-0.05309931	-0.47315043	-0.460246	0.021965632	0.24840383	0.0652858	-0.25827673	0.050471473	-0.5676044	-0.6376955	-0.3064926	-0.054163698	0.09218826	0.011969688	0.1246681	-0.12254008
1.0374823	-0.55457675	0.59572846	-1.4750644	1.4598882	-1.6479467	-1.1815342	1.6273898	1.2119975	1.0736753	-1.2152083	-1.2027354	-0.9837046	-1.4016031	-1.4180378	-0.5201747
0.48287627	0.5723969	-0.008579502	0.015626177	-0.74790055	-0.07173741	0.8481584	0.013373636	-0.11048889	0.28191438	0.82605183	-0.45977503	-0.34684289	-0.12859724	0.23428851	0.45048162
-0.2101238	-0.5832894	0.14594701	0.48479006	0.23020099	-0.28067952	-0.6993483	0.27680036	-0.22308281	-0.22224855	-0.5192808	0.28551945	0.67481434	0.5202928	0.32384142	-0.70740515
-0.47902724	-0.72538203	-1.0334094	-0.5282273	0.5769171	0.75471	-0.2214776	-0.5274251	-0.89438915	-0.8567795	-0.49239478	0.26005775	-0.07641281	-0.27813783	-0.3078905	-0.044139758
0.21498191	-0.01845512	0.03576877	-0.16249488	0.33454016	-0.5371475	-0.1518459	0.52183074	0.36529455	0.23076896	-0.07906699	-0.21873654	-0.1509816	-0.21202764	-0.11445756	-0.00762457
0.82577205	-0.38885728	0.78374016	0.39401782	0.25474057	-1.4504424	-1.0627097	1.3008666	0.63388413	0.92229337	-0.64690983	-0.691507	0.4995199	0.27464905	0.32037237	-0.99904513
0.26324546	-0.15379898	0.2382575	0.13686974	0.19478016	-0.48186997	-0.29299295	0.419014	0.13478196	0.13759409	-0.16077316	-0.24773228	0.11964919	0.051138964	0.058403444	-0.28874895
-0.78810954	1.0415361	1.2686284	-0.8513004	-0.13797468	0.3971738	0.54213715	-0.43763584	1.1859163	1.5026509	0.4228431	0.77817196	-1.0949564	-0.4890971	-1.6594018	0.4139349
0.15634638	-0.11001977	-0.5656605	-0.36814728	0.10719261	0.22280785	0.2472166	-0.019803075	-0.46928605	-0.46034116	0.088836215	-0.32857725	-0.38970807	-0.30646858	0.006441229	0.27660164
0.606467	0.37293425	-0.67973447	-0.5908267	-0.63505995	0.26887953	0.9725497	-0.056378305	-0.4562443	-0.35394347	0.84174085	-0.56444156	-0.8208237	-0.5654327	0.23112293	0.81107664
0.02436361	0.093387626	0.3069088	0.23099382	-0.079015836	-0.21304826	-0.11199745	0.10377048	-0.012435562	0.1699177	-0.023044996	0.005960426	0.17053977	0.17924617	0.11624056	-0.18687047
-0.33469358	-0.0030190134	0.3416444	0.26793864	-0.018259494	0.07337777	-0.07837806	-0.19613297	0.023164697	0.3446513	-0.12296651	0.33815065	0.29118553	0.28759143	-0.106108904	-0.3766515
0.2905764	-0.15239638	-0.27420652	-0.25990346	0.12022345	-0.20709647	0.099363476	0.30769053	-0.12878627	-0.17605092	0.038715538	-0.33987883	-0.220022	-0.2914317	-0.017513754	0.14192858
0.5347212	-0.30207187	-1.3264387	-0.7256355	-0.029399034	0.28980213	0.68173563	0.012587397	-1.0467042	-1.2499832	0.5112145	-0.68162	-0.7176809	-0.6626221	0.5233128	0.7706675
0.14748506	0.47486067	0.6126771	0.67692995	-0.7372348	-0.024568573	0.32013234	-0.123697616	-0.11295307	0.4921489	0.5848639	0.095867895	0.4727994	0.57225215	0.45167178	-0.33537525
-0.100379355	-0.32384542	-0.13577718	0.13103433	0.19130588	0.044395294	-0.22125448	0.010742221	-0.35136425	-0.28474283	-0.30145198	0.16046165	0.26497903	0.19037327	0.14189582	-0.27621436
-0.17351465	-0.039905928	0.06429557	0.14315982	0.033453967	0.020975726	-0.08014479	-0.017303288	-0.15447983	0.049376957	-0.16708362	0.18352109	0.09070428	0.1071659	-0.1009337	-0.16812693
0.04455761	0.07287501	0.23206058	0.09231892	-0.05132001	-0.17240368	0.048590332	0.15319921	0.06657174	0.19876722	-0.049693096	-0.046621077	0.07631057	0.10222795	-0.06776865	-0.15340787
-0.9115087	-0.8179428	-1.0025127	-0.3260027	0.9236667	0.8064005	-1.0296929	-0.6751226	-0.84780556	-1.0297709	-0.95971715	1.041081	0.8598011	0.24643601	-0.5953441	-0.81506443
-1.1779342	-0.25357398	-0.20493582	-0.14289378	0.31409368	1.0105804	-0.3449173	-0.82570845	-0.51684344	-0.19963644	-0.48510572	1.1453714	0.33088872	0.25430474	-0.9068412	-0.47199714
0.31701896	-0.6531009	0.7826772	-0.5969724	1.2792581	-1.4233309	-1.2237153	1.3231981	0.88912547	0.8802465	-1.2043352	-0.4804855	-0.03662242	-0.6748653	-0.89016783	-0.92976564
0.123539805	0.24988393	0.1520963	0.36111408	-0.4977584	0.14882195	0.41882598	-0.15517797	-0.45837614	0.09497378	0.465162	-0.031017814	0.13193758	0.2944526	0.28894556	-0.03641951
-0.95536846	-1.2141358	-1.5345573	-0.030883195	1.0750265	1.3992532	-1.0992936	-1.2511485	-1.3435075	-1.6087033	-0.96283484	0.9539692	0.9950394	0.45971048	0.17527175	-0.7392837
0.3732715	0.07652955	0.06157027	-0.9254409	0.69938904	-0.8767274	-0.25642526	0.7473242	0.78201735	0.52309173	-0.28152525	-0.5234253	-0.66568136	-0.7846981	-0.95500416	0.014550746
0.077184014	-0.055418435	0.22831881	0.6546471	-0.41708317	-0.07487888	-0.037143506	-0.025061268	-0.5280903	-0.0054984223	0.076305434	-0.043899428	0.52505183	0.6267018	0.52328575	-0.38658547
0.07457985	-0.56447256	-0.41613582	-0.34908804	0.65972996	-0.2781317	-0.37987894	0.4606752	-0.26621395	-0.47349238	-0.42593503	-0.21729124	-0.038562987	-0.2844329	-0.1525054	-0.18574059
-0.33304742	0.26007727	-0.047387276	-0.24560499	-0.2304472	0.57653534	0.46719393	-0.4596997	-0.13285959	0.11822614	0.21960261	0.20217688	-0.31985313	-0.16997716	-0.5429408	0.22688386
-0.21076973	-0.37674862	-0.1333945	0.62157196	-0.2837108	0.3214767	-0.10433959	-0.3604726	-0.84623396	-0.48647243	-0.12992768	0.227975	0.6007173	0.5964621	0.565868	-0.33073294
-0.7103384	-0.78966767	-0.5727618	0.3232728	0.4296777	0.6953533	-0.68558866	-0.5186945	-0.93533045	-0.8746699	-0.6836749	0.67879313	0.64461243	0.39203587	0.24129736	-0.5310029
1.0650322	0.6287637	-0.3399534	-0.12040052	-0.7620393	-0.6077548	0.99070615	0.7436037	-0.28431505	-0.17760304	1.0639343	-1.0784129	-0.5461633	-0.31057626	0.66991216	0.7199706
0.09224307	0.026845295	0.32448146	0.6444009	-0.41981024	-0.104611665	0.033269174	-0.0022055244	-0.3225908	0.06652014	0.19409388	0.006797649	0.5313863	0.5639457	0.5331202	-0.31809133
-0.40105313	0.06322362	0.03095087	0.15842055	-0.043004204	0.4907258	-0.06629816	-0.44145536	-0.22294588	-0.058871258	-0.12938704	0.43044657	0.12854391	0.15584949	-0.20130824	-0.19993186
0.100146145	-0.6612337	-0.35957256	-0.5961196	0.9574241	-0.6917991	-0.5255936	0.6980666	0.064325616	-0.3117596	-0.55436826	-0.21148777	-0.0766674	-0.43151912	-0.4521087	-0.19306672
-0.70481426	0.3249543	0.43779463	-0.12174925	-0.024838716	0.5255809	0.18187512	-0.5546534	0.13366356	0.49775118	0.062193945	0.6376259	-0.1745633	0.08447309	-0.63001305	0.010646094
-0.28899965	-0.41132203	-0.5672015	0.09519773	-0.012334977	0.7032154	-0.11081068	-0.50196135	-0.94633317	-0.7548682	-0.04232986	0.1291483	0.109504096	0.1291111	0.28050795	-0.020904467
0.04706962	-0.6574223	-0.22960722	0.18317573	0.3760615	-0.33178982	-0.35708374	0.35734853	-0.33168393	-0.53106195	-0.3097084	-0.083861545	0.25333568	0.08028981	0.31322837	-0.28586155
0.1890344	-0.57054734	-0.11498094	-0.92113763	1.1105317	-0.8570586	-0.8882334	0.8819223	0.51241225	0.19159445	-0.92298305	-0.36942413	-0.3812222	-0.78328425	-1.1026756	-0.4501151
0.5037628	-0.090681724	-0.22843724	-0.008412671	-0.19910973	-0.30911306	0.33053106	0.29486212	-0.3263066	-0.2811072	0.34246784	-0.5388979	-0.124583475	-0.07484646	0.33234298	0.2238137
0.24249841	-0.055714738	-0.20451935	-0.25985205	0.17652538	-0.2671338	0.046808038	0.34898004	-0.0068950686	-0.13775687	0.041090727	-0.3712218	-0.22191468	-0.3561837	0.00058276305	0.11045227
-0.087521605	-0.7886761	-0.47023323	-0.43312082	0.8770599	-0.36337757	-0.70283085	0.4465114	-0.1525092	-0.45190236	-0.7188171	-0.020499751	0.009257214	-0.29140064	-0.394054	-0.35854775
0.24483469	-0.093538225	0.82059556	-1.0076176	1.0648248	-1.0454115	-0.8288748	0.8347611	1.2718741	1.1352009	-0.9566421	-0.29342115	-0.7105362	-0.847892	-1.4546475	-0.7092912
-0.5474711	-0.18375261	-0.11540595	-0.2745963	0.457455	0.2652069	-0.29456538	-0.2454	-0.0898503	-0.0022255937	-0.41755596	0.4489827	-0.019846313	-0.13602144	-0.5936598	-0.27181613
-0.48991165	-0.0710632	-0.028823694	-0.52019083	0.4572481	0.17442992	-0.29974735	-0.08249938	0.15252763	0.13762498	-0.36796096	0.4172815	-0.16168627	-0.29171032	-0.9454703	-0.26504627
-0.04917299	0.44229496	0.3408267	0.06037155	-0.37998775	0.1193369	0.34965244	-0.19083746	0.09181836	0.47247964	0.42747235	0.048938062	-0.014576634	0.15127185	-0.08239106	0.05643952
-0.7810612	-0.73228323	-0.48887324	-0.33743063	0.9583546	0.21238692	-0.9746461	-0.12712936	-0.2893693	-0.5016236	-1.0148182	0.83684844	0.57307035	-0.051929332	-0.77841663	-0.8081053
0.28061557	-0.82088387	0.59425074	-1.164886	1.2774408	-1.2789824	-1.1219537	1.2142751	0.9560665	0.951481	-1.2121487	-0.5973266	-0.53106135	-0.92212546	-1.2764459	-0.8801249
0.5522759	-0.2828965	-0.3317121	-0.7371655	0.74533045	-0.9205208	-0.15356147	0.8200385	0.44406682	0.007601717	-0.14651473	-0.5739039	-0.49057207	-0.72466975	-0.44004908	0.15130077
-0.27634868	-0.6257391	-0.7447527	0.027209815	0.5188569	0.66342497	-0.25822714	-0.37796035	-0.72490096	-0.98240334	-0.34374657	0.21052445	0.10020062	0.065932356	0.2569171	-0.18256703
-0.64239186	0.46599865	0.55788565	-0.31339407	-0.069407895	0.56986326	0.3283778	-0.5338039	0.46527794	0.73676825	0.0814326	0.6422792	-0.39786923	-0.07259192	-0.9717345	0.09648192
-0.24385445	0.45264235	0.24150822	0.21484652	-0.47599766	0.38829133	0.41528356	-0.44104552	0.037113152	0.29960847	0.39667943	0.21172625	-0.04016759	0.18816325	-0.0803986	0.12883049
-0.8095028	-0.9016611	-1.1841607	-0.16294011	0.73038477	0.8487007	-0.6722835	-0.6359189	-0.96574414	-1.1756455	-0.6539292	0.7022535	0.45526925	0.13303132	-0.10678308	-0.41918346
0.276674	-0.28491727	-0.6623577	-0.51741385	0.35186654	-0.2565832	0.06936736	0.47463682	-0.40458387	-0.52536297	0.0035330476	-0.52837694	-0.41413933	-0.5336439	0.07770456	0.1985273
0.06647366	0.14841498	0.5053497	0.16151407	-0.038510054	-0.41619176	-0.08347791	0.27660367	0.2036366	0.6297733	-0.06828959	-0.08556994	0.16775347	0.13210076	-0.093501166	-0.29785436
0.14206357	0.045688394	-0.13862124	-0.38333404	0.26853356	-0.21342637	0.08003728	0.23937073	0.16360164	0.08764189	-0.008570759	-0.21918829	-0.37449145	-0.357557	-0.32730058	0.18040256
0.2293134	0.104999356	0.26712936	0.5342385	-0.4857923	-0.20459394	0.12962194	0.11080474	-0.4171322	0.018086312	0.21604362	-0.23961166	0.30144876	0.41349727	0.5497522	-0.22378783
0.96464133	0.098851174	-0.22470231	0.43399832	-1.0281122	-0.76505405	0.6102137	0.78586566	-0.8791972	-0.52413744	0.84880847	-0.775588	0.13353993	0.1692391	1.126586	0.24824783
-0.10826573	-0.46152827	-0.34511253	0.36747625	-0.053886894	0.13947509	-0.29640242	-0.055797108	-0.7185286	-0.742999	-0.13545126	0.08004534	0.39876068	0.27930388	0.6055234	-0.24948515
0.054840934	0.010265963	0.042016625	-0.073044024	0.09347345	-0.15558757	0.045424238	0.15637392	0.06277329	0.13116583	0.029837433	-0.114239685	-0.09729451	-0.113012314	-0.15688276	0.022004033
0.056895133	-0.16294283	-0.007656926	0.23247355	-0.068412185	-0.042127736	-0.0439259	0.032766838	-0.39972514	-0.21111783	0.011081685	0.04319469	0.30432057	0.20361297	0.27002305	-0.18092746
-0.59569854	0.28687215	0.58179396	0.5093535	-0.4975292	0.4327084	0.16622019	-0.50169003	-0.06902146	0.44545886	0.13600406	0.62552404	0.44035023	0.656874	-0.030580213	-0.41939652
-0.06700807	-0.55292255	-0.50211495	-0.5765583	0.7133506	-0.21129745	-0.50946844	0.30540642	-0.2045566	-0.4150411	-0.5642873	-0.06706862	-0.05815519	-0.4075426	-0.33733758	-0.22176819
-0.95325834	-1.2405149	-1.2646111	0.15683942	1.0841994	1.2763984	-0.98938406	-1.0648898	-1.1509923	-1.4824921	-0.948066	0.84701186	0.7614771	0.38225824	0.1273781	-0.70568186
0.12520172	-0.04116505	0.107844636	-0.42294323	0.41459215	-0.41354132	-0.13119614	0.3645959	0.42906514	0.36602646	-0.25201234	-0.12703086	-0.3311081	-0.41794688	-0.5500925	-0.052050784
0.4150604	0.2772166	0.33807182	0.26610327	-0.329964	-0.38638425	0.22384518	0.32396418	0.012005449	0.3224017	0.37618712	-0.3547773	0.08813192	0.2498731	0.36647832	-0.037184607
-0.11577668	-0.092376195	0.27704704	0.88865906	-0.5141552	0.022329422	-0.14064899	-0.1881585	-0.59271926	-0.07206733	0.11306115	0.19535024	0.7810517	0.8063597	0.6964364	-0.53943735
-0.75247544	0.10875585	0.070639215	0.019524818	-0.12387226	0.7947126	0.06476139	-0.7171323	-0.26969984	0.068860695	-0.04193906	0.70125806	0.02432441	0.30830538	-0.45035154	-0.15221545
0.37733993	-0.3387784	-0.22431806	-0.030614626	0.2697601	-0.5599655	-0.21357991	0.6378998	-0.076642305	-0.26002702	-0.14051175	-0.43797928	0.04823191	-0.1579416	0.21575226	-0.031286635
-0.70972615	-1.1955332	-0.8234631	-0.37702155	1.2355391	-0.005554912	-1.2434115	0.15107903	-0.48591447	-0.84050196	-1.0703559	0.6139002	0.65458137	-0.16454534	-0.63982785	-0.85052073
-0.00938643	-0.21517779	0.22716561	0.69380665	-0.46272463	0.027169265	-0.13683912	-0.04009241	-0.58813417	-0.1722304	-0.0107966615	0.05764664	0.60134	0.6133985	0.5638237	-0.45818296
-0.08785598	0.032899313	-0.11085843	0.1905227	-0.40510663	0.48753938	0.2034712	-0.46358758	-0.46609205	-0.18428063	0.20481916	0.06833393	0.08646821	0.19714013	0.12976773	0.06377123
0.11162355	0.43074757	0.53800666	0.61047137	-0.6511774	-0.05863967	0.27214152	-0.14102897	-0.026799053	0.55983466	0.5107326	0.03791355	0.3949214	0.5816452	0.3212281	-0.21238077
0.17496565	0.41029692	-0.13253666	-0.09750794	-0.4522134	0.28253913	0.5063346	-0.28685433	-0.110591896	0.005920701	0.5687711	-0.19498438	-0.2625792	-0.16708425	-0.010538472	0.4051419
0.6609091	-0.7465537	0.86490697	-1.3340622	1.4905173	-1.6363218	-1.350346	1.5084108	1.259219	1.2958742	-1.46565	-0.8059633	-0.7938171	-1.1943873	-1.6509567	-1.0523366
-0.03258358	0.10401581	0.88218004	0.91437066	-0.44376504	-0.5198247	-0.50104636	0.278511	0.024286648	0.714858	-0.018066034	0.31041613	0.91528165	0.85737747	0.5397798	-0.9199739
0.2987894	-0.0037711088	-0.0128540695	-0.24239045	0.36735737	-0.5894187	-0.087663345	0.5290021	0.38156757	0.23152515	-0.12399962	-0.3409783	-0.17948468	-0.32866046	-0.2136851	0.04668176
-0.6597775	-0.01312142	0.060191303	0.11644853	0.04614307	0.54440093	-0.13424644	-0.49749157	-0.20947668	-0.006405988	-0.17338033	0.67839813	0.15371598	0.19178389	-0.36182895	-0.2612863
0.119528845	-0.05176604	0.5402601	0.70771897	-0.47606626	-0.41171932	-0.1528704	0.2644751	-0.35001656	0.14387888	0.02882078	-0.01909586	0.67950416	0.7016353	0.58921915	-0.54571813
0.12566419	0.2657858	0.24935214	0.25203738	-0.3747221	0.07699281	0.18173079	-0.021622406	-0.09679608	0.23994198	0.21145071	-0.05915949	0.07884783	0.26468632	0.09272205	-0.052968886
-0.4665409	-0.6085013	0.46090057	1.0824696	-0.33207497	-0.22716664	-1.1401021	0.023927273	-0.80023664	-0.29147178	-0.5530153	0.8218829	1.1885666	1.0771594	0.8210715	-1.2587388
-0.105199315	0.07276496	0.3800301	0.3605915	-0.27156058	-0.042715684	0.056767356	-0.051991466	-0.12045593	0.30500257	0.041285936	0.091532715	0.29843011	0.39620152	0.16676143	-0.31913164
0.38580662	-0.4005613	-0.7240437	-0.5227736	0.3294135	-0.13740607	0.2680473	0.30747727	-0.5019492	-0.72857887	0.0985158	-0.43501195	-0.41684434	-0.5034962	0.18387987	0.30565557
0.3013392	-0.31529555	0.17781341	0.80769783	-0.6318452	-0.25889662	-0.04512392	0.23670188	-0.7807291	-0.33945817	0.12040977	-0.27794874	0.5706289	0.67259216	0.7829838	-0.39990458
0.82399833	0.21207938	-0.8758335	-0.7896846	-0.65830636	-0.12046308	1.0398668	0.3383299	-0.63275343	-0.72328943	0.99139893	-0.8928939	-0.9983736	-0.8284134	0.44052586	0.89450014
-0.063077234	0.2735247	0.46708515	0.41831875	-0.2931308	-0.14349003	0.019731713	0.00032287397	0.046286263	0.42570826	0.14817907	0.1417339	0.3099843	0.42016006	0.20823227	-0.30727813
0.110123254	0.007826543	0.65250194	0.61100996	-0.2617056	-0.4045749	-0.3904368	0.35243812	0.11938535	0.36877507	-0.13920349	0.011993517	0.59868795	0.5959648	0.39168853	-0.6987723
-0.15089914	-0.5515575	0.120219395	0.7732925	-0.2758027	0.11335372	-0.56770545	-0.08934434	-0.9161911	-0.5565317	-0.2148742	0.26004255	0.9151016	0.7900371	0.8055743	-0.7902164
0.38446647	-0.5179175	0.3858262	-1.2099959	1.2965225	-1.2634897	-1.0798548	1.1229951	1.1220165	0.74490684	-1.0491774	-0.4759219	-0.6135066	-1.0459555	-1.4217786	-0.6081697
-1.0345883	-1.1747259	-1.474779	-0.3866002	1.1869481	1.2022543	-1.2092448	-1.0176885	-1.1630061	-1.3928194	-1.0949976	1.0967867	0.940139	0.21966647	-0.2375126	-0.8016276
-0.46399167	-0.05546556	-0.14629477	-0.36223897	0.33631018	0.29832977	-0.098331735	-0.2544152	-0.020646473	0.049813077	-0.26074013	0.4130353	-0.20790721	-0.17965204	-0.5493658	-0.02940275
0.7187328	0.231098	-0.26515594	-0.4707416	-0.046976227	-0.5962209	0.4814357	0.6413838	0.18913485	0.088932365	0.4676817	-0.72843987	-0.6078548	-0.5851957	-0.03385431	0.4560723
-0.28304842	-0.8243916	-0.7932049	-0.29375228	0.897245	0.14644685	-0.7686425	0.11501034	-0.56960636	-0.81283313	-0.7546101	0.24489269	0.28502783	-0.204874	-0.19879149	-0.4653118
0.048031513	-0.09284143	0.14110163	0.20791204	-0.08446739	-0.08045164	-0.006146206	0.03137206	-0.13763991	-0.008190796	-0.011173216	-0.059408672	0.23156685	0.16709578	0.19251756	-0.110458426
-0.17650753	-0.72689295	-0.07139882	-0.5320064	1.0648952	-0.6030905	-0.97709334	0.62129575	0.37352374	0.06762394	-0.9027185	0.02856132	-0.02479116	-0.4214094	-0.7600511	-0.57019347
-0.48611975	-0.36679333	0.03038225	0.32269356	0.23259631	0.1276089	-0.50601786	-0.156303	-0.35236508	-0.24171965	-0.4267686	0.4841029	0.46007383	0.3735733	0.03173203	-0.5551855
0.48110127	0.42379528	0.16767469	-0.53156483	0.04928212	-0.39352646	0.36730075	0.32356364	0.62338096	0.5809598	0.3320495	-0.45288286	-0.6073555	-0.5557025	-0.51701564	0.36989453
-0.22139895	-0.37741393	-0.26134554	-0.6479541	0.7073871	-0.28985396	-0.62406474	0.22057565	0.36033937	0.07080168	-0.6472059	0.16859114	-0.2503273	-0.44659254	-0.65321904	-0.25499305
-0.24391693	0.0638872	-0.1862648	0.08411215	-0.16527766	0.6006057	0.20914955	-0.4657037	-0.3734593	-0.17087215	0.13626723	0.24526377	0.052254077	0.14642097	-0.04486151	0.10819765
0.0004588846	-0.3064313	0.037681106	0.35430756	0.14571902	-0.27100417	-0.32443368	0.17030387	-0.23392148	-0.16655822	-0.26493093	0.038834102	0.37759003	0.2908754	0.28872898	-0.3993703
-0.15885174	-0.6942933	-0.587788	-0.2737442	0.73530537	-0.08513162	-0.67610985	0.33317068	-0.5046035	-0.7901122	-0.60032886	0.07298569	0.1829104	-0.17558207	-0.10445203	-0.3104738
0.49372184	-0.03140571	-0.37963697	-0.62789357	0.44864875	-0.64556295	0.13828845	0.7290372	0.15670612	-0.1695272	0.028494332	-0.55990803	-0.5661565	-0.65285367	-0.25587952	0.26002812
0.12085196	0.123141855	0.57473385	-0.06634887	0.33590353	-0.60143465	-0.34442174	0.5361459	0.69227135	0.63689613	-0.2810026	-0.08763508	-0.05404542	-0.14173393	-0.320679	-0.36964816
0.22341716	-0.1007962	0.84261966	1.1136069	-0.5783502	-0.5191396	-0.36373794	0.33221588	-0.4003295	0.48458254	0.016429951	0.11476378	1.0128891	1.0125902	0.7532652	-1.0018318
-0.2514019	-0.17768696	-0.13073611	0.36282465	-0.13898335	0.28999552	-0.07436115	-0.31496033	-0.5047372	-0.3232788	-0.099018626	0.2788409	0.38656124	0.34869024	0.22432913	-0.20333758
-0.17049551	-0.20977409	-0.071285084	0.43178323	-0.27314526	0.2358934	-0.07400081	-0.2588197	-0.56652135	-0.27598128	-0.050744403	0.20334835	0.41853884	0.4167668	0.4237534	-0.29762968
-0.121111326	0.12886162	0.1815115	0.08718604	-0.10258627	0.04866838	0.0016198539	-0.09999796	0.11221629	0.19708823	0.000360977	0.15366559	0.01035693	0.10212023	-0.10535971	-0.10577241
0.09533335	-0.64978945	-0.88247186	-0.03684098	0.21992606	0.36994272	-0.10215723	-0.094675034	-1.0141644	-1.067477	-0.10813699	-0.16679414	0.038182404	-0.07639769	0.6056487	0.022221375
0.26524305	0.027277632	-0.015246076	-0.5704399	0.46920252	-0.5235056	-0.16291936	0.49044368	0.3998878	0.3204973	-0.12483038	-0.39510995	-0.44757566	-0.4934924	-0.45711595	0.10507761
0.0072902353	0.035272103	0.01692567	-0.096742466	-0.032140166	0.01860139	0.07215291	0.011634099	-0.21014729	-0.02718838	0.021822747	-0.014342434	-0.051253136	-0.05279101	-0.11919804	-0.06454006
-0.073198475	0.0712148	0.3789268	0.030451361	0.071320444	-0.23245178	-0.2262226	0.11189802	0.2999726	0.34142092	-0.1575704	0.11164045	0.067748085	0.025175491	-0.19553083	-0.3149501
0.17141764	-0.10946243	0.04829802	-0.07615366	0.31864142	-0.38676894	-0.20844764	0.42674685	0.19451077	0.11537212	-0.161611	-0.16161038	-0.0077401907	-0.108697236	-0.20605332	-0.1315158
-0.22828059	0.38859993	0.7784533	0.72560996	-0.5366003	-0.020124428	0.034732282	-0.16874357	0.09002074	0.638299	0.2138654	0.39635158	0.584646	0.6306237	0.26585817	-0.53677076
-0.19633628	-0.15345517	-0.011752694	0.03306083	0.13183121	0.08671972	-0.18414204	-0.07463638	-0.13087298	-0.09935128	-0.265941	0.16436206	0.123484656	0.1408491	-0.08652396	-0.26147646
-0.34697384	-0.2136851	-0.22549476	-0.2676866	0.3029512	0.18692346	-0.24531232	-0.04306918	-0.25581744	-0.23503001	-0.2670742	0.1323121	-0.0023478717	-0.20559593	-0.34798416	-0.14863758
-0.21668503	0.33580542	0.50767654	0.3457131	-0.32357955	0.07613633	0.08854364	-0.16883188	0.08670322	0.36864465	0.121524334	0.27666453	0.31063905	0.41691402	0.0023412746	-0.202441
0.14646617	-0.16279903	-0.060583647	0.37381858	-0.26332453	-0.042953007	-0.074710794	0.10802969	-0.4644253	-0.30653644	0.12221626	-0.15354885	0.3112204	0.32987988	0.61170834	-0.16471191
-0.28438142	-0.76331997	-1.0462137	-0.30272597	0.60442543	0.6853267	-0.3288822	-0.33101586	-0.9551188	-1.1680462	-0.41392383	0.13735713	0.04929118	-0.13983296	0.22798096	-0.12683156
-0.2401765	0.35792586	-0.2989982	-0.48638743	-0.35565743	0.82980573	0.6077774	-0.6891248	-0.27514306	0.02525501	0.47969365	0.1771992	-0.5720452	-0.3433372	-0.48687077	0.477634
0.15198345	-0.37325314	-0.46926284	-0.51140976	0.4855412	-0.32069257	-0.17105906	0.33443597	-0.10758951	-0.38125077	-0.28021687	-0.24933901	-0.25278443	-0.4378463	-0.29891828	0.06876081
0.60259056	-0.64961123	0.5889075	-1.3374265	1.3716962	-1.3968767	-1.2726744	1.360529	1.1193355	1.0080302	-1.2934029	-0.6922117	-0.7629121	-1.1563134	-1.4861593	-0.82785976
0.63687927	-0.18778874	-0.17118385	-0.48954627	0.56990564	-0.83212644	-0.2078917	0.80012584	0.39699915	0.16006653	-0.16362311	-0.71254325	-0.4822717	-0.55334765	-0.30367118	0.067211315
-0.061807048	-0.17923641	-0.4850932	-0.08392711	0.067072764	0.29139635	0.029550187	-0.20339075	-0.45390138	-0.42011505	-0.0063941604	0.08356699	-0.061551306	-0.01629349	0.013961599	0.041180506
0.18172097	0.11242827	0.043997742	0.0034897502	-0.023937589	-0.18115748	0.12160159	0.16719869	0.14007819	0.17128006	0.13819143	-0.13766792	-0.09233396	-0.06019582	0.032162443	0.11670662
-0.0640174	0.17138737	0.21119441	0.13626647	-0.10075294	-0.0071966946	0.12797499	-0.0089442115	0.07075933	0.30600652	0.11295906	0.045629974	0.07564139	0.11953223	-0.03168849	0.014898834
0.13619478	0.106526	-0.20608325	-0.7705308	0.2963479	-0.07201878	0.2403408	0.20738481	0.24113776	0.14365478	0.1422578	-0.2828667	-0.67799586	-0.6024664	-0.58346295	0.40294454
0.33703196	-0.08201023	0.089361444	0.28130865	-0.064920515	-0.47515452	-0.01098238	0.3756102	-0.006761878	0.028614797	0.040954042	-0.28470615	0.2312755	0.18111181	0.24086913	-0.17391644
0.104227416	-0.08542049	0.00172166	-0.6312983	0.7385975	-0.6690791	-0.38378614	0.5786963	0.4406672	0.3059404	-0.38518384	-0.2706476	-0.35339713	-0.56516474	-0.7690324	-0.06105712
-0.52405256	-0.6707548	-0.52886623	-0.32739666	0.72737074	0.34219286	-0.52363497	-0.16278403	-0.47826418	-0.5869439	-0.6264427	0.45013428	0.19370003	-0.074478835	-0.3332855	-0.35401258
0.34084377	0.123083115	0.26883942	0.85593957	-0.8056678	-0.12592497	0.074093044	-0.037487198	-0.64843017	-0.035192706	0.43311432	-0.17115393	0.5323546	0.68021595	0.76035494	-0.35252813
0.38554606	-0.39820933	0.07452912	-0.92122364	0.9369645	-0.9002597	-0.7168749	0.9069159	0.5526123	0.40257302	-0.67991227	-0.4761927	-0.52368367	-0.84324944	-0.8682033	-0.3145461
-0.3340601	0.27392912	0.51433253	-0.97649544	0.17431818	0.21967682	0.3109828	-0.17972307	0.56221896	0.7046609	0.08894357	0.124605276	-0.84115267	-0.70210576	-0.9907118	0.11179136
-0.23611535	-0.08910802	-0.3100829	-0.5893794	0.35892096	0.291574	-0.09778991	-0.13824056	-0.2388776	-0.16659126	-0.14999351	0.17384878	-0.29845268	-0.3227211	-0.7169985	0.047950834
-0.24267378	0.033064406	0.1406288	0.025515044	0.09131464	0.079033665	-0.12938468	-0.11465052	0.03772684	0.19603324	-0.09959458	0.21591242	0.07039084	0.13334839	-0.14554182	-0.14718068
-0.8325792	-0.5720276	-0.54158807	-0.08951252	0.73362917	0.7454814	-0.598868	-0.62625045	-0.55458546	-0.5960506	-0.7719429	0.8553358	0.39113152	0.21041518	-0.5811407	-0.5330753
-0.93761414	1.0596579	1.1444759	-0.27880687	-0.74673647	0.88678056	0.95698106	-0.847735	0.82435375	1.3494579	0.87382543	0.8012531	-0.6025715	0.07310073	-0.95585275	0.49707127
0.46881488	0.37338018	-0.08275604	0.10142329	-0.6271892	-0.24962279	0.48950732	0.2807543	-0.25894266	-0.014236062	0.5698274	-0.42477512	-0.0985824	-0.022594046	0.5040736	0.23020568
-0.31251207	0.19144447	0.3685296	0.4370255	-0.38780493	0.37405562	0.12568647	-0.45859545	-0.24289747	0.23182574	0.1899995	0.3669418	0.34674972	0.46886167	0.07682543	-0.22929889
0.5110753	-0.22681929	0.5364907	0.5666691	-0.13242874	-0.89653283	-0.5613017	0.8172606	0.08142356	0.3244155	-0.24804553	-0.3249497	0.6015968	0.44327593	0.51769155	-0.7848681
-0.37351245	-0.2725891	-0.27247593	-0.148499	0.28682798	0.322005	-0.15752837	-0.21147363	-0.19526063	-0.18153217	-0.31515494	0.25571567	0.03559782	-0.11165765	-0.32115716	-0.16445468
0.25289384	-0.35752615	-0.72749144	-0.14098486	-0.094588675	0.10316049	0.30144987	0.079688415	-0.73965377	-0.81850404	0.2169481	-0.34345886	-0.27942792	-0.24550204	0.5029496	0.35117638
-0.13852048	-0.5866682	0.1748265	-0.80229026	1.133041	-0.728667	-1.0522931	0.7249096	0.4038002	0.15911609	-0.964803	0.0028510045	0.0018362754	-0.57155097	-1.054139	-0.74882126
0.4635557	-0.16655858	-0.7637596	-0.6432565	0.16776542	-0.0624858	0.40610284	0.19210091	-0.36017254	-0.5736993	0.24816638	-0.5075425	-0.63512945	-0.6797609	0.017459633	0.48521018
0.17144848	-0.32152876	-0.053096853	0.24441954	0.077105045	-0.345419	-0.17562649	0.37871942	-0.19787799	-0.3161434	-0.099976264	-0.111551896	0.23396356	0.17702769	0.4111785	-0.2555376
-0.18032327	0.43528438	-0.01635847	-0.2284288	-0.46630532	0.5307804	0.59348863	-0.535698	-0.12053789	0.32642624	0.5138938	0.102456525	-0.41915718	-0.12855546	-0.36075327	0.3553546
-0.024345288	0.5162697	0.59891564	0.553193	-0.64650184	0.035063192	0.3769712	-0.1872011	-0.07868039	0.50263315	0.5231782	0.12734956	0.3738557	0.5645011	0.31061232	-0.21234712
0.19988559	-0.39863017	0.008167486	0.5788742	-0.1594683	-0.35673356	-0.30320358	0.3533725	-0.64181024	-0.4562019	-0.101994954	-0.07997744	0.5258858	0.45878288	0.63361573	-0.46449745
-0.42224115	-0.27471206	-0.24758083	-0.042836815	0.30567232	0.27789107	-0.34952456	-0.17000486	-0.28646642	-0.27743697	-0.37716243	0.38087568	0.19683725	0.061569646	-0.27711728	-0.3126531
-0.12630422	0.55513924	0.23940128	0.13401729	-0.5662631	0.36831015	0.5473493	-0.411034	-0.034993347	0.40816605	0.57317495	0.13018723	-0.13188286	0.20006016	-0.10507328	0.2019132
0.45497024	-0.23373333	-0.92710865	-0.82330513	0.22113393	-0.20353965	0.36526287	0.51058173	-0.5205016	-0.9231583	0.19179247	-0.6723743	-0.60754174	-0.7446198	0.35027575	0.4762625
0.09836411	-0.032556787	-0.018070875	-0.08675381	0.1691445	-0.30970746	-0.08836326	0.32964513	-0.028055038	0.008489304	0.0019484067	-0.24216242	-0.063726276	-0.08033678	0.024345322	-0.09377669
-0.5370819	-0.55378914	-0.9057033	-0.2753594	0.39259726	0.8837198	-0.35085914	-0.6591618	-0.8682846	-0.93465424	-0.42308226	0.3814158	0.23062281	0.015151391	-0.072554365	-0.14463174
-0.08056399	0.20780921	0.7849213	0.55070597	-0.26495668	-0.28555375	-0.060782943	0.159267	0.10904829	0.73830646	0.07490754	0.21275175	0.48907748	0.5450486	0.20298876	-0.5938028
0.27022183	-0.18583485	0.8681446	1.2382928	-0.81171536	-0.831398	-0.62789005	0.71827227	-0.6764972	0.49949235	0.07504154	0.10957661	1.1064171	1.1592458	0.8969872	-1.144281
0.42640755	-0.37722436	-0.96234095	-0.5156563	0.1424083	-0.08738096	0.44867203	0.38562053	-0.68539727	-1.0721796	0.22795151	-0.5069313	-0.53555614	-0.5396774	0.7715978	0.48548675
0.4246976	-0.22807695	0.095367916	-0.9466429	0.7948226	-0.8671046	-0.5715739	0.8833275	0.5176126	0.50253296	-0.56294745	-0.65352464	-0.51786655	-0.86907786	-0.80028266	-0.17559253
-0.20669127	-0.15316819	-0.19614193	0.03522299	0.061797608	0.25160524	-0.038919233	-0.14506441	-0.24975336	-0.22583722	-0.07668087	0.16634838	0.07527848	0.06276159	-0.034797054	-0.048730753
-0.24106194	-0.044698294	-0.14019814	0.25211373	-0.26656005	0.5719122	0.112720154	-0.52124757	-0.5958991	-0.14680159	0.09584129	0.17283612	0.20367545	0.30729407	0.12325101	-0.041487
0.12642771	-0.3657683	-0.8738989	-0.61647534	0.31857428	0.27218914	0.099358685	0.028554423	-0.5977252	-0.7970566	0.001176289	-0.3181764	-0.40114915	-0.4719648	0.042628385	0.32330605
0.12642224	0.09057707	-0.27384257	-0.6485138	0.18861929	-0.024300536	0.19998908	0.06635049	0.04153688	0.033191867	0.021664612	-0.24106242	-0.5211498	-0.5228188	-0.5166209	0.2925554
-0.013975058	-0.31922656	-0.15180689	0.0148091605	0.26486665	-0.13867351	-0.24994111	0.19932081	-0.25779468	-0.23051135	-0.21204306	-0.010445976	0.14079398	0.01111155	0.14542499	-0.176
-0.4378672	0.1318952	0.18942438	0.19241023	-0.18566787	0.41431242	0.03731696	-0.48331955	-0.12965074	0.15689099	0.05818141	0.5127091	0.14293095	0.3196834	-0.11707069	-0.13866755
-0.6659072	-0.86603373	-1.1266739	-0.3095377	0.81308365	0.73903126	-0.7744297	-0.6589793	-0.8687965	-1.1544033	-0.69947886	0.65387815	0.6099358	0.15536308	-0.2503133	-0.5080889
-0.06909431	0.23758815	-0.392085	-0.52707344	-0.09240613	0.5207272	0.41626078	-0.39996177	-0.15932347	-0.0473378	0.30075493	0.046866555	-0.52384293	-0.46588722	-0.5985672	0.39362755
0.3000485	-0.1027402	-0.6310033	-0.4951402	0.22255954	-0.12808971	0.2612842	0.22691995	-0.27289173	-0.40131146	0.14815141	-0.4150364	-0.50491464	-0.5377639	0.031328835	0.38633853
-0.08679133	0.13568056	0.38101178	0.43210807	-0.28246245	-0.053779397	-0.03795643	-0.045866024	0.067350514	0.2128849	0.045774166	0.21269989	0.3027014	0.42183658	0.15362781	-0.21505754
0.8298069	0.37418762	-0.8233517	-0.86834407	-0.5792725	-0.19942617	1.0026411	0.41503066	-0.470947	-0.58629644	0.9682752	-0.84529513	-0.9922405	-0.81566304	0.48224702	0.90518093
-0.8872785	-0.8878512	-1.061287	-0.10664553	0.9002553	0.87023	-0.9071596	-0.75331223	-0.9151647	-1.0471514	-0.8406858	1.0333533	0.87054384	0.34096763	-0.22787784	-0.6704023
0.08488554	0.32856527	0.32729962	0.39149135	-0.47015515	-0.0041479613	0.27404374	-0.02543036	-0.094697185	0.279731	0.36747757	-0.093608476	0.18907374	0.32893717	0.27379766	-0.037441496
0.78095526	-0.33809713	-1.0372632	-0.8154016	0.050322723	-0.44716638	0.6269185	0.64209384	-0.60716504	-0.9684051	0.57037973	-0.8242921	-0.8367581	-0.7928477	0.57048035	0.73439646
-0.23355943	-0.27590147	-0.172664	0.06441913	0.16694725	0.07203283	-0.3098526	-0.02510595	-0.31820002	-0.2570845	-0.26351848	0.15389542	0.19877312	0.1001948	0.00064277014	-0.31170657
-0.2414691	-0.09605606	-0.0040291026	0.08347976	0.008830355	0.15486033	-0.107204	-0.12453962	-0.25405782	-0.0977504	-0.1444007	0.24823734	0.1641381	0.17288788	-0.030290144	-0.15288316
-0.8770683	-1.1674997	-1.3489014	-0.45430374	1.1721139	1.0824313	-1.0672632	-0.92400205	-1.1122581	-1.4415162	-1.057282	0.94304144	0.7370915	0.13350138	-0.33312464	-0.6237609
-0.058593668	-0.14273374	0.35299096	0.42892435	-0.009275964	-0.23390552	-0.34784356	0.12948705	0.0020150035	0.16678664	-0.22215334	0.11065298	0.4596317	0.32693592	0.20318587	-0.5352645
0.19770502	0.084826976	-0.11038891	-0.71234226	0.31638145	-0.23517272	0.09352669	0.3026121	0.2661586	0.06821959	-0.018984152	-0.252295	-0.5687847	-0.5925898	-0.65741247	0.19373766
0.14434795	-0.09913418	-0.352332	-0.30013448	0.04224473	0.08967199	0.16568331	0.00030151452	-0.31867197	-0.33539805	0.0725653	-0.18760929	-0.21793501	-0.22874051	0.07901629	0.23449168
-0.46714145	-0.2074196	-0.39134714	-0.22773363	0.25002015	0.6071191	-0.11752887	-0.43681094	-0.4506122	-0.30314204	-0.23612688	0.35974553	-0.01421589	-0.07637833	-0.37269348	-0.14408621
-0.5277059	-0.81292254	-0.67281574	-0.5478908	1.1585797	0.048719052	-1.1009743	0.07697187	-0.36675417	-0.662773	-1.0283549	0.5430318	0.56040895	-0.20566107	-0.7305421	-0.7923662
-0.41854987	0.11833956	0.112029344	0.06555486	-0.19056334	0.38332123	0.04465396	-0.33653963	-0.11513276	0.1479408	0.061148223	0.32728368	0.07995258	0.20390071	-0.22277693	-0.024437217
0.42377496	-0.5810212	0.43954983	-1.0645441	1.1612809	-1.148452	-1.0266563	1.090367	0.88996536	0.8464514	-1.2045077	-0.667881	-0.6238021	-0.90318644	-1.1753255	-0.6899084
0.26784226	0.4482911	-0.17175323	-0.07156937	-0.66636807	0.26436448	0.75014365	-0.22854804	-0.15377332	0.11110938	0.7378282	-0.23091297	-0.36561674	-0.18751094	-0.032547392	0.47666517
0.08548735	-0.1533992	-0.16094546	0.02755427	-0.008134174	0.02695801	-0.011975737	0.006603904	-0.22987795	-0.19369525	0.007206194	-0.070632584	0.051477775	0.050950777	0.24268535	0.025177352
0.46932754	-0.0874296	-0.45548666	-0.14046094	-0.35347688	-0.2248097	0.4355254	0.31318992	-0.70236623	-0.5844597	0.41855243	-0.5584031	-0.24393511	-0.2511383	0.6078043	0.36667287
-0.7903854	0.78002113	0.78967714	-0.36187726	-0.49786708	0.7682171	0.7820094	-0.71389836	0.2883456	0.89823765	0.6148206	0.57041585	-0.5232291	-0.08055922	-0.73898125	0.3853297
-0.39942962	-0.24073489	-0.08542688	-0.116957754	0.37896973	0.17767285	-0.29267347	-0.17301168	-0.1630471	-0.14898878	-0.37040195	0.25242266	0.09953141	0.04149902	-0.32668224	-0.32889584
-0.13842766	-0.18737857	0.03424152	-0.13042346	0.32968298	-0.14940315	-0.27160153	0.08222836	0.1706411	0.105745405	-0.28677684	0.12652971	0.017217254	-0.08197638	-0.32676014	-0.22337987
0.057660967	-0.13335548	-0.38807926	-0.44419646	0.35398698	-0.14274059	-0.051150806	0.19646238	-0.03507447	-0.21881191	-0.06594107	-0.13683458	-0.34756285	-0.45226422	-0.26046127	0.07852868
-0.035509247	-0.4431947	-0.9427446	-0.47889122	0.23254253	0.50479823	-0.073687084	-0.19107972	-0.8454219	-1.0020999	-0.052243326	-0.17386504	-0.14692345	-0.3625606	0.1668999	0.19936647
-0.56543154	-0.5429953	0.021067087	0.31195882	0.4371047	0.18981099	-0.5588791	-0.23899171	-0.35084534	-0.30800575	-0.646376	0.49284366	0.5388364	0.32813793	-0.0055884416	-0.5949586
0.24142987	0.14910369	-0.69813627	-0.7531347	-0.20165318	0.40175506	0.67521197	-0.32918805	-0.33050105	-0.26007745	0.48147944	-0.22776958	-0.7534019	-0.67237115	-0.21305086	0.70172465
0.16380234	0.08889477	0.20376684	0.17972448	-0.153908	-0.26843023	0.041009568	0.31018558	0.036843583	0.16065507	0.15173341	-0.23367941	0.04530112	0.074277095	0.12221633	-0.07847142
0.05090548	-0.2868717	-0.29124588	-0.6769618	0.694534	-0.40780255	-0.3829975	0.37803108	0.15137066	-0.070988685	-0.30836666	-0.1541595	-0.2526692	-0.48826054	-0.60848624	-0.06410242
0.32194757	0.4100378	-0.06965381	0.007467948	-0.55437756	0.09413028	0.64242744	-0.10016129	-0.049547695	0.16510697	0.67991704	-0.3496911	-0.27082345	-0.101048596	0.21139218	0.3695774
-0.044137146	-0.47433484	0.15001552	0.18478099	0.38529107	-0.58129376	-0.72519743	0.4606319	-0.0060491324	-0.04603587	-0.64332885	0.012005742	0.4958161	0.13822381	0.05955244	-0.68968993
-0.5856507	-0.42890745	-0.10836576	0.08767675	0.35369462	0.2438402	-0.58101416	-0.17168392	-0.40900865	-0.29531214	-0.5049352	0.5206666	0.48029935	0.25568256	-0.1670288	-0.572911
0.5096429	-0.54464084	-0.5140426	-0.5373792	0.5285385	-0.61322767	-0.1342272	0.814411	-0.013629968	-0.44333625	-0.17240712	-0.6554582	-0.39332572	-0.5722923	-0.122510105	0.21717536
0.068422124	-0.015137461	0.111196816	0.52520764	-0.5544177	-0.016401451	0.16127273	-0.050583925	-0.5564276	-0.18425384	0.2717366	-0.06872373	0.40802646	0.44819805	0.55872756	-0.1822941
0.46124718	0.0059045386	-0.31187505	-0.21533446	-0.016818289	-0.30457652	0.30261979	0.3620305	-0.13516395	-0.20381856	0.33241904	-0.4923342	-0.24464709	-0.2622832	0.19191049	0.25913966
0.9599827	0.29933485	-0.25307047	0.24186558	-0.9445977	-0.7108254	0.65187526	0.83153117	-0.74745965	-0.5156524	0.8874816	-0.88525033	-0.07575756	0.022893643	1.0366684	0.36032137
-0.11154089	-0.4103397	-0.2821459	0.1456224	0.26758227	0.009764211	-0.23571584	-0.019215403	-0.3220176	-0.28482613	-0.2957452	0.09834835	0.16640982	0.13196528	0.0843617	-0.22740492
0.19209398	-0.15181182	-0.21953526	-0.29806644	0.28411335	-0.2897703	-0.03580968	0.36982214	0.04372162	-0.08989909	-0.09861333	-0.28367433	-0.25263566	-0.29153463	-0.13154191	0.12734425
0.07361866	0.25486246	0.104672894	0.1795862	-0.38206282	0.13029362	0.38127473	-0.080617726	-0.1402136	0.15963386	0.39675882	-0.06925122	-0.024784293	0.15739918	0.15452453	0.122806676
-0.29153773	-0.54529697	-0.8973458	0.009954186	0.18805094	0.87456286	-0.13712534	-0.5961901	-0.92560667	-0.97227454	-0.12949678	0.20318587	0.123339646	0.07621687	0.29419398	0.03622092
0.2546751	0.14827543	-0.5670397	-0.57323915	-0.08433552	0.029008275	0.47729573	-0.0073882276	-0.15776242	-0.3495755	0.39007223	-0.3666057	-0.54936916	-0.46515903	-0.086552106	0.515747
0.6201987	0.12090929	-0.1986571	-0.38653803	-0.017719466	-0.62996733	0.37080565	0.64410204	0.054763604	-0.114627995	0.32138258	-0.7441016	-0.4652787	-0.40895537	0.15730296	0.33081985
1.1007065	0.17079858	-1.1129264	-0.9640748	-0.52623266	-0.4984912	1.0021672	0.73053455	-0.69600075	-1.051469	1.0476301	-1.1142838	-1.0003189	-0.933541	0.9483257	1.0026504
-0.34423545	-0.5340833	-0.7592913	-0.25368407	0.35519505	0.690189	-0.21885414	-0.37350866	-0.72994787	-0.8137316	-0.31507167	0.15582423	0.053330876	-0.13611345	-0.050734825	-0.0070880596
-0.0672068	0.30697814	0.8451255	1.080437	-0.8541096	-0.15803422	-0.0902046	-0.1286047	-0.39978668	0.53231096	0.36438093	0.40378642	1.0194246	1.0260001	0.7616621	-0.9297752
0.3006294	-0.078993805	-0.6187357	-0.25877383	-0.14221862	0.18732902	0.36097947	-0.1066023	-0.4057898	-0.41417688	0.36591458	-0.2754344	-0.3233832	-0.24726343	0.26282576	0.38672972
-0.014251455	0.092438065	0.29344073	0.011928817	0.07076062	-0.14438984	0.027696624	0.1484422	0.19131723	0.3494621	-0.09032592	-0.059360255	-0.0629232	0.023447208	-0.13639243	-0.12459283
0.1816706	-0.29073396	-0.3304275	-0.9737294	0.8206711	-0.4170665	-0.3417819	0.49922305	0.3398015	0.030764868	-0.5009622	-0.34527832	-0.59345514	-0.7780622	-0.86165184	0.093286216
0.8391633	0.10932478	-0.8739946	-0.76874876	-0.76604867	-0.5508021	0.8978293	0.71014434	-0.5607741	-0.8645127	0.8443039	-0.8977928	-0.93830454	-0.8291492	0.7268415	0.81390184
-0.41111442	-0.30167294	-0.3550477	0.054533973	0.20323007	0.6779037	-0.27300707	-0.47680873	-0.5936141	-0.50046784	-0.27905515	0.28832126	0.22823118	0.14875339	-0.12068641	-0.21870321
0.13291046	-0.22392593	0.0071923155	-0.26633194	0.4605101	-0.4121026	-0.32015675	0.49553123	0.23422173	0.05171842	-0.37374976	-0.20914811	-0.12367304	-0.28039393	-0.34567738	-0.09896065
0.3043959	-0.10582557	0.6535418	0.93645275	-0.6380153	-0.5907891	-0.34954324	0.45676225	-0.6171584	0.2647011	0.08874056	-0.0629241	0.88578117	0.90120095	0.78127396	-0.81202364
-0.6850919	-0.7917785	-0.8165754	0.038903568	0.6557109	0.7600992	-0.7019052	-0.6032161	-0.9135552	-0.9245325	-0.655174	0.70304877	0.6154161	0.25187364	-0.08381395	-0.51245725
0.09098076	-0.30794212	-0.23918407	0.18612696	-0.10654283	0.073000185	0.054221213	-0.04942032	-0.59569335	-0.42390454	0.07506288	-0.17522953	0.10021681	0.15325493	0.3368029	-0.058608647
-0.03188346	-0.104432315	0.25472784	0.5765103	-0.32113752	-0.072881415	-0.10641744	-0.01752779	-0.24743284	0.00050668506	-0.017094782	0.080430135	0.58664054	0.59154713	0.4731646	-0.40774888
-0.24830987	-0.17834939	0.22922684	0.5127202	-0.16113125	0.22785181	-0.20122497	-0.28426698	-0.3067976	-0.101001166	-0.17684218	0.30387565	0.47047293	0.5152852	0.2882507	-0.39786687
-0.247609	-0.18180533	-0.060080495	-0.2607073	0.39091286	-0.10137059	-0.3086943	0.05030218	0.16361634	0.10050615	-0.3575689	0.18809192	-0.026877698	-0.22239429	-0.50763565	-0.23095928
-0.3632501	-0.19157016	-0.12854232	0.0061010537	0.4224611	0.34421158	-0.265593	-0.3473892	-0.11064588	-0.09301868	-0.37283754	0.36382073	0.088780254	0.08359424	-0.40933722	-0.18844426
-0.056432318	-0.14336845	-0.21847974	0.09724028	-0.045965847	0.2307682	-0.018906241	-0.19088973	-0.41665298	-0.32736257	-0.0050842892	0.022581765	0.109750316	0.10984631	0.20983464	-0.048271954
0.2434681	-0.13191035	-0.4964281	-0.6732809	0.38877106	-0.19331619	0.080466755	0.25804296	-0.097363874	-0.2568136	0.029483337	-0.3719822	-0.49122074	-0.569958	-0.31985757	0.2318767
-0.030626463	0.6497453	0.47447547	0.013524206	-0.52242756	0.22795616	0.608007	-0.2683655	0.4122078	0.6728733	0.5807016	-0.00085099397	-0.20704426	0.0058290176	-0.24440034	0.21229571
0.48171487	-0.1290164	0.23324917	0.41519347	-0.20193818	-0.694131	-0.10560378	0.57678556	-0.0442146	0.17242679	0.04879395	-0.37723494	0.30781206	0.28503838	0.42245728	-0.26070768
0.47898278	-0.48631868	-0.53401995	-0.84022665	0.7999003	-0.71095806	-0.28185213	0.7974184	0.10043026	-0.27366838	-0.26319382	-0.53668934	-0.49407762	-0.785201	-0.37556887	0.12767403
-0.18881178	-0.1268406	-0.019140929	0.1700843	0.0054084007	0.1372788	-0.10589602	-0.07673866	-0.2707521	-0.09885053	-0.11823027	0.039265648	0.18594599	0.13673604	0.03296019	-0.2247995
-1.0955156	1.0110555	0.93246603	-0.3909029	-0.7447104	0.9605088	0.9047115	-0.9306101	0.60924965	0.9892733	0.8001018	0.95609087	-0.87179595	-0.008282221	-1.0674634	0.725102
0.31783867	-0.3308841	-0.6002265	-0.43267122	0.31300646	-0.27772242	0.10897267	0.36782253	-0.26748526	-0.56915694	0.09874478	-0.45578057	-0.31747684	-0.442263	0.16355304	0.22712018
-0.2461551	-0.52983874	-0.96833307	-0.46152422	0.5511311	0.545095	-0.230993	-0.32579157	-0.7777979	-0.88614446	-0.27945268	0.15459114	-0.027428696	-0.3049907	-0.1529119	-0.09299094
0.5550908	0.12872478	-0.5213135	-0.6453887	-0.18626602	-0.18469486	0.64008814	0.27923694	-0.33031255	-0.30094498	0.58222604	-0.681424	-0.65834373	-0.55498147	0.048179388	0.6861293
-0.16235	0.06170981	0.074263014	0.023738537	-0.11107759	0.316084	0.06886316	-0.20728774	-0.12276463	0.008550112	0.020781573	0.1177769	0.04506934	0.06178513	-0.081494205	-0.0659301
-0.24606833	-0.31861225	0.09309464	0.5437668	-0.016326785	-0.0011254998	-0.27527627	-0.15111287	-0.5047413	-0.14360327	-0.22160448	0.21805774	0.53229374	0.48897034	0.30686235	-0.42325008
-0.07656314	-0.09599923	-0.18632331	-0.36053917	0.42441007	-0.14012729	-0.16703518	0.16476968	0.12989752	-0.03694943	-0.24790049	0.023722125	-0.26925105	-0.35279533	-0.41608894	0.051932927
0.7763885	0.14103937	-0.8206953	-0.6913227	-0.75105715	-0.41761804	0.8625769	0.58268374	-0.5294842	-0.86028826	0.79493445	-0.8802471	-0.8378614	-0.7707378	0.6784965	0.7317114
0.06927892	-0.33985072	-0.24008097	0.27382413	-0.18024424	-0.010899896	-0.051327113	0.07267993	-0.5664013	-0.54496104	-0.06781475	-0.08708819	0.2888601	0.22140707	0.54870766	-0.1539848
0.04387662	-0.016496146	0.21800512	0.30468392	-0.0059880787	-0.289965	-0.20556594	0.22297896	-0.03036755	0.08650035	-0.05714016	-0.08195429	0.2956825	0.27728525	0.21937016	-0.31608385
0.030891756	-0.25822896	-0.17558941	-0.3932163	0.46958864	-0.22045416	-0.28108865	0.2893783	0.035096973	0.007530537	-0.26536465	-0.0315715	-0.2107208	-0.3002393	-0.27579555	-0.09683236
0.068601474	-0.223342	-0.18610805	-0.1858654	0.3157932	-0.22697514	-0.1653109	0.25389183	0.0071607954	-0.10799589	-0.21720101	-0.0986745	-0.016402071	-0.19868478	-0.15271892	-0.09354876
0.34787416	0.047229394	0.16599526	0.19382006	-0.27623722	-0.31512567	0.13380495	0.31028438	-0.06709332	0.13524474	0.122122794	-0.3124456	0.099497564	0.21731132	0.2860542	-0.10244363
0.5165103	-0.13198045	0.4458477	-0.5585747	0.65303284	-0.9041265	-0.42527938	0.817874	0.8831057	0.6545575	-0.49280038	-0.42621556	-0.2505351	-0.5691189	-0.55580467	-0.25825843
0.26387966	0.23341666	0.4556253	0.532887	-0.42391196	-0.39701337	-0.07697553	0.27866518	0.059253637	0.32545185	0.20099291	-0.13585791	0.419243	0.41161335	0.44556823	-0.3685294
-0.35697886	0.43245256	0.27023405	-0.38924626	-0.13800567	0.4281846	0.49074808	-0.4097385	0.4635041	0.6127816	0.325372	0.22754934	-0.521828	-0.31982103	-0.74335045	0.35638303
0.38508317	0.04833139	-0.08393999	0.046497006	-0.25184977	-0.19599544	0.34626433	0.23479259	-0.22615786	-0.10524998	0.32550156	-0.35676056	-0.05904136	0.043581046	0.31687656	0.21501435
-0.050160404	-0.24562915	-0.24018851	-0.3821199	0.30265823	-0.014740592	-0.10327605	0.025426418	-0.09581153	-0.12936425	-0.21597672	0.0062601073	-0.14958708	-0.30715945	-0.2660176	0.054884728
0.20823522	0.10878277	-0.36412638	-0.74283725	0.085617736	0.16667141	0.38669845	0.013621578	-0.023902813	-0.059967287	0.21190983	-0.29888383	-0.6656831	-0.60950565	-0.48352486	0.40611047
0.251451	-0.015494693	0.17692807	0.2155367	-0.16475743	-0.29099107	0.0342242	0.28372154	-0.10069677	0.022749403	0.121348925	-0.26255843	0.14179678	0.21113977	0.33381945	-0.15312578
-0.24250427	-0.24665393	-0.1245252	0.41721022	-0.02115477	0.18239148	-0.21023577	-0.22325855	-0.39603922	-0.33015946	-0.13373892	0.26732787	0.4341418	0.37146053	0.3422222	-0.26134416
0.28550452	-0.09366825	0.454715	-0.13934585	0.4115366	-0.6531311	-0.49259296	0.6248733	0.60733646	0.63560975	-0.4318239	-0.31470078	-0.110218965	-0.25614113	-0.2976754	-0.34663582
-0.60174406	-0.28947964	-0.44059956	-0.59967	0.5288152	0.584073	-0.39312616	-0.3960497	-0.25504494	-0.31403074	-0.40883452	0.54565895	0.009024171	-0.2555042	-0.74568516	-0.2334931
-0.5439107	0.064392276	0.07714466	-0.4120807	0.14819828	0.42292595	0.0031159048	-0.3746519	-0.013682106	0.12173412	-0.15629645	0.47088966	-0.3055523	-0.2142351	-0.7635077	-0.044164624
-0.35190877	-0.2960755	-0.23564367	0.2949885	0.025744092	0.42205408	-0.19102566	-0.42809987	-0.4707805	-0.3121768	-0.19301103	0.34384912	0.2725678	0.24873689	0.113040544	-0.22679175
0.15939142	0.110746615	-0.36841488	-0.19816124	-0.15782754	0.29171422	0.42819962	-0.14583698	-0.21472378	-0.11100302	0.2512123	-0.0971207	-0.32330835	-0.26052865	-0.06132404	0.357792
0.51804304	0.6945542	-0.45778295	-0.644905	-0.677786	0.17566068	1.0377982	-0.08582896	-0.0163375	-0.057629522	1.0553031	-0.5116984	-0.8476071	-0.57017267	-0.030669779	0.788464
0.34390405	-0.26544684	0.0873165	-0.10137768	0.3632306	-0.70464444	-0.35326487	0.5890143	0.32564938	0.25404078	-0.2647721	-0.3835923	-0.03494363	-0.14736088	-0.045845073	-0.17559914
0.417575	-0.06277269	-0.25790146	-0.19065967	0.10082774	-0.4309771	0.017335767	0.52651465	-0.10316393	-0.21029536	0.070706755	-0.39427042	-0.19113538	-0.2843502	0.22677775	0.1338192
0.49939585	0.13462803	-0.121639505	-0.16922309	-0.15632956	-0.4565239	0.26251188	0.5530541	0.046138104	-0.02533938	0.31182888	-0.5543465	-0.2844152	-0.33582136	0.24691044	0.32169273
0.31276488	0.17776321	-0.29504496	-0.10171117	-0.22589749	-0.082397446	0.33710673	0.12463132	-0.1581811	-0.14186768	0.42697957	-0.39590368	-0.24673548	-0.14788574	0.2446229	0.2785087
0.07458764	-0.2589485	-0.22013658	0.062249478	0.12372442	-0.06568083	-0.12524933	0.10631932	-0.345613	-0.31905854	-0.12592183	-0.050622284	0.070593335	0.06150439	0.21666001	-0.11525234
-1.1886237	1.1380422	1.0038785	-0.6904377	-0.9247731	1.2917418	1.1709337	-1.1555476	0.63737696	1.1662273	1.0640615	0.9962508	-1.0545101	-0.26684368	-1.2519785	0.9014207
-0.34127325	-0.7317568	-0.81391454	-0.039541036	0.4986441	0.65573627	-0.2862758	-0.4122251	-0.83950144	-1.0012197	-0.4329043	0.16659573	0.21076035	0.030131333	0.2923716	-0.16677196
0.17359446	-0.18266508	-0.4550485	-0.51396304	0.35607105	-0.09870978	0.12882747	0.22102937	-0.21204413	-0.3255141	0.00070839346	-0.25385687	-0.35109675	-0.49258742	-0.15583017	0.27706409
0.16431354	0.008725519	1.0745378	1.330292	-0.9206573	-0.9337457	-0.9396038	0.77943355	-0.5588995	0.79992276	0.22504662	0.4697358	1.2748779	1.2636712	1.0327764	-1.3068144
0.13404132	-0.017472785	-0.036257043	0.064779975	0.033957228	-0.20181076	0.01933443	0.155088	0.057859838	0.02524434	0.010219464	-0.07953537	0.062616915	0.010440634	-0.02541015	-0.08677794
-0.31335235	0.4164793	0.90663594	0.9887519	-0.77363783	-0.06350691	-0.07247322	-0.2052241	-0.045663755	0.7160115	0.31663626	0.473087	0.8647468	0.9470088	0.4675209	-0.8049121
-0.7460929	0.5071553	0.6756017	-0.5685308	-0.09436323	0.52639765	0.33040828	-0.512155	0.53592664	0.8278699	0.15202208	0.6414879	-0.70302373	-0.22154917	-1.2994233	0.14622323
0.03748981	-0.16602749	-0.26751083	-0.0899833	0.17249039	0.012889161	-0.021144763	0.04309078	-0.29295087	-0.30526787	-0.093958355	-0.16341613	-0.12310448	-0.1472631	-0.09501455	0.07985088
-0.19444624	0.3338748	0.101478934	-0.48438707	0.013282285	0.25339055	0.2984956	-0.230631	0.23919313	0.3621629	0.071172036	0.16243653	-0.5558381	-0.32505533	-0.6961021	0.22804022
0.0925846	0.20880967	-0.05331273	-0.33096847	-0.10896543	0.078418955	0.25519836	-0.011490868	0.084177874	0.17483363	0.17868069	-0.16269146	-0.38415086	-0.29139814	-0.2859372	0.31751174
0.061417133	-0.18629263	0.5459685	0.84743595	-0.48010796	-0.41915387	-0.30835274	0.22986518	-0.59370834	0.089620546	0.04270132	0.0015218138	0.7599585	0.7954671	0.5812785	-0.78014404
0.2806559	-0.36828682	-0.80788714	-0.32784653	0.04815948	0.19016623	0.31144762	0.06028709	-0.67273545	-0.8286686	0.21453053	-0.30630153	-0.34396592	-0.34961924	0.53526884	0.3034024
0.33846074	0.2072453	0.27133676	0.44060528	-0.5812113	-0.2548404	0.18340835	0.21743295	-0.2427628	0.17895451	0.35234082	-0.28203923	0.20682466	0.33215106	0.4624554	-0.12351289
-0.20742431	0.030847041	0.093206495	-0.055682946	0.15607157	0.080769464	-0.115837015	-0.0669406	0.1580946	0.1582312	-0.15235914	0.19128798	-0.042641293	-0.005666929	-0.25021598	-0.072944775
-0.018606262	0.7026955	0.11876822	-0.6203761	-0.4138331	0.46458584	0.6723911	-0.3719232	0.31985688	0.496093	0.55517125	-0.02108368	-0.82803303	-0.45463404	-0.67140687	0.5840171
-0.005284921	-0.18344194	0.0843274	0.056459777	0.10533128	-0.16353229	-0.23184638	0.14472197	0.008488489	0.05860064	-0.17575467	-0.003944242	0.12350968	0.07706777	0.04721796	-0.19985647
0.21751101	0.043528806	0.29518023	-0.40368313	0.39646673	-0.3993759	-0.16395347	0.44532683	0.55221003	0.5064198	-0.2565732	-0.1944621	-0.40367115	-0.44408077	-0.51349306	0.0028334528
0.03040191	-0.32053778	-0.27856287	0.38609982	-0.20706104	0.28824136	0.0073034638	-0.20421562	-0.7260204	-0.63796884	0.05177827	-0.0033297976	0.3291118	0.34038568	0.6310086	-0.08855261
-0.41812488	-0.6400591	-1.0202019	-0.19129384	0.48639205	0.6950221	-0.40927747	-0.38895935	-0.7960432	-0.9755901	-0.3779895	0.27029517	0.2512375	-0.00081316876	0.095472105	-0.24847856
0.046462785	0.12946245	0.07884247	0.037572745	-0.060226902	-0.079920046	0.06704632	0.07915031	-0.014570566	0.1638241	0.10749851	-0.13613792	-0.007209163	0.08185546	0.039189376	-0.049920786
-0.03533932	-0.39038104	0.018672328	0.00053928973	0.42955193	-0.4148055	-0.4312247	0.43143985	-0.080628425	-0.1523947	-0.3836702	-0.14611112	0.22729497	0.040821444	0.046215747	-0.37437883
0.27539203	0.2243365	0.93444836	0.99417526	-0.6262489	-0.61755645	-0.37281376	0.35857138	-0.02220236	0.814246	0.083557785	0.08451868	0.85146654	0.86393154	0.6344243	-0.9906016
-0.8810121	-0.58052534	-0.72779536	-0.425335	0.6531633	1.0129497	-0.64127237	-0.9294307	-0.7084174	-0.68317974	-0.608571	0.92250615	0.39329827	0.13931265	-0.5450377	-0.45484614
0.17541039	-0.009741697	0.2040517	0.17051789	-0.0376486	-0.36610368	-0.09652602	0.3201812	-0.033407014	0.07282974	0.034364745	-0.21594046	0.10467616	0.17526485	0.21173468	-0.17026377
-0.006869843	0.41296163	0.41408202	0.06293392	-0.25905502	0.03995417	0.24600428	-0.062017072	0.24387248	0.5384654	0.24081156	0.04243866	-0.08575512	0.069351465	-0.13952343	0.013039491
0.11329445	0.15700532	0.38756	0.26935244	-0.19890638	-0.26999804	-0.013689659	0.15126225	0.1823045	0.41186023	0.088850915	-0.055823334	0.14683172	0.20250592	0.11636735	-0.14110762
-0.12900358	0.24571083	0.32728907	0.33367264	-0.39779565	0.15348153	0.1820026	-0.18677872	-0.26735598	0.25914788	0.2627485	0.07198209	0.17147908	0.3831136	0.13697149	-0.14674306
-0.1284539	-0.11245808	-0.26831728	0.10365427	-0.11235501	0.4129944	0.10138248	-0.28037158	-0.537582	-0.38621092	0.1303885	0.03641851	0.03679536	0.10104235	0.15327178	0.04485068
-0.044000298	-0.29108784	0.06515278	0.14237942	0.24107417	-0.32068285	-0.4107949	0.27676755	-0.029670356	-0.07251712	-0.28347677	0.04980547	0.2257466	0.10750435	0.14498582	-0.2783792
-0.2651294	-0.047843684	0.029032929	0.13405873	0.05791176	0.19596693	-0.020159708	-0.16809587	-0.14298928	-0.006935713	-0.089493155	0.15968992	0.12436842	0.20497656	-0.116382875	-0.19143964
-0.4215118	-0.7160159	-0.9756415	-0.06695119	0.55053765	0.6954033	-0.46029434	-0.4574303	-0.808386	-1.0726748	-0.47655118	0.3292585	0.32984883	0.052412875	0.29331234	-0.2987985
-0.41813383	0.21328878	0.37953582	0.18566088	-0.037032567	0.20751284	-0.03037731	-0.20915979	0.114950664	0.38816065	-0.13564883	0.48351872	0.21686506	0.23368302	-0.31868896	-0.25248864
0.14264953	0.028424637	0.50653565	0.8355795	-0.4190876	-0.32982638	-0.20387457	0.22941102	-0.27328897	0.1733742	0.10332999	0.041828915	0.70419836	0.7368979	0.6738914	-0.5551444
0.3652267	-0.022381816	0.82855	1.1159678	-0.8025008	-0.88481766	-0.56287247	0.75170267	-0.5304625	0.42347872	0.16914012	0.03767207	1.1024537	0.98157835	0.93745553	-1.058236
-0.1097312	-0.3320139	-0.26054907	0.2139297	0.011465052	0.14906634	-0.14300662	-0.13544852	-0.55445856	-0.5083035	-0.17118421	0.124055035	0.30478624	0.18572864	0.3363064	-0.122182764
0.30343255	0.049840532	-0.15918626	0.14989124	-0.2452821	-0.16283096	0.17286254	0.16943434	-0.24485491	-0.1554992	0.2859608	-0.29724887	-0.021943737	0.004181935	0.38826004	0.124318235
0.016151953	-0.28947598	-0.47341967	-0.19123544	0.23642123	0.16504805	-0.07097913	0.01695472	-0.41307855	-0.4594359	-0.07530396	-0.15088949	-0.048551533	-0.18217084	0.015960785	0.032976393
0.44345182	-0.6356261	0.30391666	-0.7478	0.8371752	-0.91912854	-0.8530882	0.81908256	0.6214128	0.47793245	-0.81306416	-0.48007867	-0.32671228	-0.68911797	-0.67184705	-0.6307207
0.16496469	-0.12052262	-0.2753468	0.1854032	-0.12809289	-0.022875622	0.15381055	0.01905089	-0.43132192	-0.37851602	0.090340875	-0.12882695	0.14276312	0.12872554	0.4475934	0.047944747
0.62273484	-0.3470078	0.19815083	0.35648155	0.06931206	-0.87128633	-0.29386446	0.7480611	0.029078467	0.082117125	-0.15324047	-0.49102437	0.35232985	0.17068525	0.52968574	-0.3658758
0.37242684	-0.23892736	-0.3442554	-0.102091126	0.14993143	-0.27594545	-0.037619956	0.31617922	-0.25578442	-0.4295093	0.00092057954	-0.2957688	-0.06079318	-0.16474563	0.26507843	0.14684477
-0.17490508	-0.13627742	-0.025799362	-0.02169346	0.19710222	0.053693064	-0.117700405	0.0030931255	-0.04941394	0.022636615	-0.21129133	0.09014621	0.09611447	0.010211383	-0.19423307	-0.16336632
0.15634812	-0.11335077	0.47939664	0.53301775	-0.15851764	-0.65805876	-0.52211624	0.47700673	-0.009509071	0.30723795	-0.21504547	0.0012828963	0.5299557	0.46530235	0.39981028	-0.7197931
-0.097000234	-0.011322574	0.22010547	-0.070920534	0.39242998	-0.5134259	-0.34696475	0.38962412	0.53152066	0.36004603	-0.3468576	0.059550468	0.040748194	-0.11258655	-0.35880795	-0.28550115
0.15779947	0.18493332	0.09153871	0.29890382	-0.3885939	-0.012167673	0.34454745	0.007818297	-0.28057367	0.04038842	0.42329797	-0.20012672	0.075966045	0.22040366	0.33235806	0.027749624
0.016312925	-0.23530893	-0.25680566	-0.15490323	0.31514183	-0.14134021	-0.27777034	0.2126133	-0.12593034	-0.27255493	-0.23530975	-0.08329685	0.02688404	-0.09598678	-0.006036166	-0.1373719
0.12631477	0.08793261	0.2459575	-0.26798308	0.24411154	-0.33887407	-0.10108423	0.31882495	0.36734077	0.40256956	-0.122169994	-0.14292142	-0.19576935	-0.24148366	-0.3761712	-0.046753712
-0.8992024	0.90019035	0.7304848	-0.5325752	-0.8361402	1.0928241	0.9089097	-0.995526	0.36071935	0.89418	0.8836331	0.75047547	-0.78182775	-0.13500026	-0.92823875	0.6255501
-0.0011710926	0.072100595	-0.123789236	-0.21593852	-0.057099912	0.166243	0.22573663	-0.10418414	-0.076958664	-0.028604658	0.15027522	-0.0697827	-0.18958148	-0.15793616	-0.1574138	0.20819886
-0.33114052	-0.5977866	-0.5959416	-0.2543718	0.61022073	0.32176036	-0.5414824	-0.12610434	-0.4387253	-0.6382112	-0.44015068	0.27538285	0.19508976	-0.08916302	-0.123723604	-0.21435481
0.32956198	0.10058305	-0.52907854	-0.47508523	-0.08743389	0.16962284	0.50201035	0.0074418313	-0.35368103	-0.2523221	0.34093925	-0.35522202	-0.5490283	-0.43454927	-0.039827753	0.53478503
-0.50523245	-0.59326845	-0.7489232	-0.47321537	0.60072297	0.56198305	-0.44982746	-0.4091893	-0.5544038	-0.6759769	-0.52334595	0.42630124	0.14686555	-0.20499074	-0.43875596	-0.17798449
-0.05160959	-0.11616011	0.22183551	0.59711355	-0.21650685	-0.11115691	-0.14574629	-0.066283315	-0.29335263	-0.06853814	-0.011717848	0.19279596	0.5565441	0.5427453	0.45275122	-0.34947544
0.15619309	0.11265182	0.09805319	0.17121904	-0.25502405	-0.16832392	0.13738208	0.13706045	-0.16325454	0.012397968	0.16147105	-0.19742687	0.12817405	0.16898194	0.19334497	-0.034259044
-0.18943098	-0.41980433	-0.095907174	0.29268804	0.11696145	-0.008744531	-0.31768706	-0.0005235963	-0.3364393	-0.333603	-0.26912388	0.14459194	0.38765317	0.3065024	0.37079573	-0.37609485
0.7061226	-0.29889038	-0.4011768	0.08546867	-0.06561357	-0.72517407	0.24054219	0.73711824	-0.39888278	-0.5553625	0.34854636	-0.6809851	-0.05879651	-0.047423586	0.7730618	0.22804692
0.15989357	0.1679361	-0.09583754	-0.21974254	-0.027205197	-0.14939702	0.2686637	0.09976455	0.12051283	0.020994987	0.20728253	-0.1806269	-0.28686816	-0.25028095	-0.12354039	0.24021667
0.396994	-0.40776634	-0.5135139	-0.030678585	0.08612536	-0.32859075	0.0615902	0.39918798	-0.50717443	-0.73467034	0.07985505	-0.44492352	0.0056152474	-0.14711717	0.510908	0.092594355
0.5553777	0.15735714	-0.5892727	-0.46088436	-0.37420997	-0.026617281	0.71567833	0.2278058	-0.34666714	-0.42390206	0.6580415	-0.5452291	-0.6329999	-0.4891924	0.16725679	0.57590246
0.3191139	-0.12977727	-0.5785016	-0.33963937	-0.07969551	0.09968623	0.32583368	0.085576914	-0.5683584	-0.6148876	0.29162735	-0.38356426	-0.33460462	-0.34826714	0.34450808	0.3404865
-0.13157806	-0.14662494	-0.17406118	-0.4824092	0.47673592	-0.013335293	-0.19515571	0.07444475	0.05507589	-0.070771776	-0.3501189	0.09971518	-0.20909695	-0.28909376	-0.59007066	-0.14023206
0.2386164	0.25651842	-0.39921418	-0.3926129	-0.39534715	0.3422406	0.63871175	-0.24041174	-0.4074406	-0.15061656	0.5515607	-0.3197248	-0.5205567	-0.41498226	-0.080311365	0.52675605
-0.18053739	0.027122334	0.9383434	1.2443503	-0.8232428	-0.6589385	-0.82339287	0.36081442	-0.49565268	0.6789511	-0.042675063	0.47453505	1.138651	1.0515459	0.86547124	-1.1879458
0.05831422	-0.2800507	-0.10367018	-0.11261946	0.3677082	-0.26642668	-0.24867715	0.34232083	-0.09840936	-0.2558999	-0.28239074	-0.19979085	0.0025955206	-0.09671789	-0.03752022	-0.12535074
0.05548781	0.5863597	0.33732054	-0.7563088	0.13970716	-0.1143682	0.35377273	-0.007958032	0.817262	0.7367026	0.22392555	-0.06404493	-0.8278268	-0.649028	-0.9928548	0.53616965
-0.08749635	-0.0022234481	0.27497438	0.19815779	0.042464398	-0.13899736	-0.1366676	0.04701781	0.033585384	0.10030751	-0.16393845	0.08124139	0.17674668	0.20543894	-0.03970382	-0.27042866
-0.07400371	-0.32957384	-0.44893575	-0.55398697	0.54428077	0.04903097	-0.24364823	0.09288877	-0.17281707	-0.24925347	-0.30587816	0.07536844	-0.22222589	-0.4342601	-0.39003405	-0.07526211
-0.70927125	-0.97831464	-0.6060317	0.28524554	0.86524206	0.60030526	-0.93177897	-0.5455477	-0.7621085	-0.9697521	-0.89071	0.7844236	0.7734964	0.45417282	0.020542542	-0.7492724
0.6812182	-0.1590103	0.7030015	-0.9102713	0.8985354	-1.0163096	-0.7533385	0.8973542	0.9087812	0.9468613	-0.7993991	-0.68115866	-0.73095536	-0.7991797	-0.89530987	-0.55536044
-0.018115701	0.3076242	-0.14360924	0.119827114	-0.509279	0.49444938	0.446915	-0.459443	-0.30157238	-0.011381449	0.4727874	0.0267735	-0.11309269	0.11036518	0.14594269	0.24845721
0.27552918	-0.042954598	-0.2022959	-0.08542157	-0.009263346	-0.23722063	0.10061697	0.31718844	-0.1840801	-0.18847641	0.14231303	-0.26525477	-0.0410644	-0.12053722	0.20216513	0.048533283
-0.28388062	0.13887683	0.5724116	0.6019706	-0.32813635	-0.07710478	-0.10721006	-0.014611034	0.006372071	0.4034152	-0.00022485653	0.32688054	0.58060753	0.640723	0.26992005	-0.53117615
0.09224383	-0.20430404	-0.21529393	-0.343542	0.3822735	-0.12888967	-0.10219778	0.18821336	-0.042504568	-0.14589259	-0.2589412	-0.09156313	-0.15460715	-0.26490986	-0.1924475	-0.011188201
0.5298665	-0.14292654	-0.11530501	-0.43384618	0.27703327	-0.55850923	-0.016820557	0.6022153	0.1800114	-0.05099886	-0.10609865	-0.5175957	-0.32367396	-0.43614572	-0.13809896	0.119386
0.3249661	-0.013787509	-0.2829074	-0.17446055	-0.032407332	-0.1278963	0.2061538	0.25156075	-0.12359167	-0.24395639	0.19096403	-0.31981263	-0.23905589	-0.19203988	0.076111	0.23341478
-0.20116834	0.13233949	0.5453253	-0.7065982	0.55679977	-0.36822453	-0.31995398	0.27634633	0.58611387	0.65915245	-0.3575399	0.18217224	-0.40443107	-0.5605887	-1.0408407	-0.32455
-0.2547743	-0.5973627	-0.6664619	-0.46746555	0.6593395	0.2695123	-0.48789328	-0.042732522	-0.4882745	-0.69747466	-0.5114553	0.24350183	-0.0033644445	-0.27038276	-0.37348485	-0.19320971
0.049839538	0.3240521	0.5713086	-0.09260888	0.06493698	-0.2462963	0.0048503233	0.20894557	0.841477	0.8908366	0.006489201	0.039511513	-0.14892855	-0.05699887	-0.4184625	-0.14093436
-0.5329025	-0.7169895	-0.83171654	-0.061481252	0.5842843	0.6268362	-0.6620943	-0.43195048	-0.80006456	-0.99511856	-0.5397665	0.44275853	0.56179297	0.19342214	0.048258662	-0.4551709
-0.66945976	-0.85533744	-1.0467203	-0.14308728	0.6674824	0.78086406	-0.7166794	-0.6226633	-0.83431554	-1.0269736	-0.6727717	0.6758504	0.5527588	0.08281189	-0.108607434	-0.42026278
0.19826406	-0.26311868	0.5555512	-0.81751525	0.9016652	-0.92121536	-0.76414865	0.8152863	0.8288295	0.69010967	-0.82750463	-0.3296215	-0.35828936	-0.62996346	-0.9113475	-0.583138
-0.32806808	-0.6984276	-0.525673	0.31517202	0.2180212	0.21327965	-0.46444404	-0.23414642	-0.60440755	-0.645246	-0.40886372	0.35301647	0.48504314	0.36408	0.41227844	-0.43787646
-0.2295817	-0.03862082	-0.22900774	-0.05451075	-0.067335695	0.4920068	0.108850874	-0.38759056	-0.36765137	-0.16745806	-0.02642629	0.20132728	-0.05433137	-0.007706148	-0.09277091	0.032166794
-0.19937539	-0.3155884	-0.31309932	0.107745335	0.115053475	0.3868961	-0.15767479	-0.26327384	-0.59658355	-0.53900766	-0.19395007	0.18732369	0.22954817	0.1323448	0.057108283	-0.14488475
-0.168095	-0.46656242	-0.55495155	-0.3106375	0.5272599	0.21871959	-0.24021542	-0.01787066	-0.39630252	-0.50522345	-0.40227327	0.04559152	-0.06899002	-0.27859858	-0.23189262	-0.07085123
0.24080169	0.048805095	0.10039945	0.2371752	-0.24474289	-0.24012853	0.094701305	0.2882035	-0.043496776	0.113174945	0.17345291	-0.20784298	0.08340311	0.11066432	0.20795307	-0.050661407
0.74524593	0.6127044	-0.555499	-0.7029251	-0.6370323	-0.049681023	0.9173682	0.18260746	-0.24044679	-0.27290866	0.9802413	-0.7742942	-0.8742071	-0.71038216	0.18083073	0.8817766
-0.05243791	0.22476637	0.6727528	0.5923804	-0.4905376	-0.24168964	0.050359853	0.022750763	-0.06161907	0.6376821	0.19143178	0.08528447	0.46560037	0.56096137	0.24916087	-0.53487027
0.1107736	0.091084145	0.48323926	0.5476744	-0.47645918	-0.25728008	0.05527808	0.14920074	-0.39259124	0.31683567	0.17041849	-0.06874554	0.45136437	0.50924957	0.36329523	-0.3271487
-0.032437857	0.5308551	0.59907365	0.60617906	-0.8567009	0.21784113	0.4000297	-0.2942577	-0.24183564	0.5362453	0.5842991	0.13561447	0.34404632	0.61898476	0.24843335	-0.18612371
-0.11793406	-0.091261506	-0.39627296	-0.29572138	0.01637724	0.39952275	0.13409606	-0.25118673	-0.4020491	-0.30001068	-0.018540578	0.014928294	-0.19957104	-0.18719073	-0.11947392	0.21576704
0.19764528	0.1688138	0.27943203	0.34814203	-0.42331666	-0.1461724	0.17041868	0.050660696	-0.0213599	0.19370496	0.23158512	-0.05524828	0.27229097	0.350317	0.2548915	-0.095426306
0.0647187	-0.09620799	-0.020349886	0.31657675	-0.17235029	-0.0749654	-0.094541766	0.06588748	-0.2784105	-0.19713709	-0.017353721	-0.12574695	0.27139157	0.20570332	0.34040427	-0.15744266
0.10508705	0.014046946	0.07629068	-0.016623994	0.1211985	-0.26455623	-0.14715935	0.23900847	0.12423872	0.085529655	-0.08666769	-0.08647194	0.03277523	-0.039081287	-0.007991294	-0.11658812
0.19477974	0.033789814	0.05637385	-0.03443324	-0.008573485	-0.35043627	-0.02999006	0.31036285	0.078577735	0.16593578	0.041534904	-0.2790664	-0.052138004	-0.08238668	0.040325392	-0.026501566
-0.24594837	-0.12851618	-0.35174227	-0.069085695	-0.017502708	0.5577731	0.015291541	-0.44967645	-0.5148395	-0.28538415	-0.036903482	0.15105052	0.040285062	-0.004997275	-0.036214016	0.049910136
0.51257515	0.10982473	0.2397905	0.4968597	-0.37085053	-0.5486875	0.047228716	0.54383296	-0.1166864	0.11382756	0.33823577	-0.35608378	0.28847125	0.31207955	0.6066971	-0.13002396
-0.07605846	-0.48884553	-0.34584194	-0.6004365	0.7148279	-0.23008852	-0.68876356	0.3493653	-0.052435335	-0.21654427	-0.60496247	0.019297244	-0.040643197	-0.4095406	-0.6380222	-0.402208
0.10836093	0.5104247	0.22720718	0.08550272	-0.47895157	0.16528678	0.4819578	-0.18349627	0.1236847	0.3820241	0.5224211	-0.15552485	-0.20066671	0.019518502	-0.0460525	0.24716605
0.6571477	0.3422561	-0.8287039	-0.7442638	-0.6651753	0.26159078	0.9322429	-0.00950199	-0.56464523	-0.59041697	0.92922586	-0.65325403	-0.8602575	-0.7478349	0.20084664	0.9083574
-0.12274011	-0.42881614	-0.3652488	-0.25535744	0.5470175	-0.08883862	-0.3063425	0.19172819	-0.25350192	-0.35419104	-0.4053408	-0.0510823	0.004092372	-0.2581174	-0.25264487	-0.13928285
0.15512612	-0.45919797	-0.31426764	-0.14924929	0.50291616	-0.44988117	-0.16824518	0.49173015	-0.070102006	-0.33791482	-0.21922956	-0.22284853	-0.04516206	-0.16676204	0.054531302	-0.028915904
0.8186323	0.5590615	-0.80920976	-0.68328327	-0.92992973	-0.010233051	1.1221489	0.31021076	-0.5830216	-0.70247704	1.1102993	-0.76879275	-0.950995	-0.701014	0.6016525	0.90407676
0.31377015	-0.35850072	-0.3467945	-0.35017964	0.40443996	-0.44608685	-0.15677324	0.65895844	-0.13118193	-0.35599363	-0.21318355	-0.37837544	-0.17489082	-0.36674237	-0.03338449	0.07728219
-0.080424815	0.12056249	0.5487044	0.5165063	-0.36928034	-0.14646277	-0.08016194	0.055003118	-0.0004092159	0.41612953	0.13555866	0.19720125	0.39708823	0.4914062	0.32663968	-0.38763487
0.0478132	0.3930433	-0.12345062	-0.59527147	-0.25646684	0.25307605	0.575486	-0.2645924	0.11476032	0.20285451	0.46683523	-0.10371841	-0.7459896	-0.4773435	-0.490831	0.52443504
-0.32555822	-0.29875347	-0.16154562	-0.25839135	0.545187	0.0026326966	-0.4114646	0.0808492	-0.07604173	-0.084625915	-0.42034355	0.22006133	-0.024569575	-0.22242294	-0.42898613	-0.25815597
-0.70895165	0.69093937	0.5624318	-0.56243104	-0.38997847	0.68684125	0.7204842	-0.63766146	0.49315715	0.7408462	0.6063908	0.480641	-0.8026336	-0.23390608	-0.8558991	0.66289717
0.28115723	-0.07552336	-0.47775757	-0.13911648	-0.03583409	-0.06798722	0.281307	0.08554049	-0.28596956	-0.41996294	0.21147953	-0.22993775	-0.3080763	-0.20273821	0.21766458	0.24092467
0.00750557	0.14978406	0.07416435	-0.4712726	0.2134182	-0.131032	0.10349537	0.06891999	0.30462584	0.2825711	-0.027875872	-0.1494106	-0.46442923	-0.45504525	-0.6611488	0.11165802
-0.1137449	0.060908224	-0.049054787	-0.32194337	0.18057895	-0.02151511	-0.06222211	0.08183271	0.08863047	0.08457595	-0.09035441	0.012916486	-0.21835697	-0.2130594	-0.29415536	0.044500794
-0.27555984	0.17246772	-0.024252573	0.13894695	-0.41793418	0.58709455	0.31618342	-0.6090182	-0.3645608	0.06900544	0.21520272	0.23535761	-0.037937768	0.20400788	-0.12863578	0.067565665
0.71327466	0.52590555	-0.36756203	-0.32776925	-0.4492623	-0.5090973	0.71734834	0.53789634	0.07063026	-0.2374885	0.7753105	-0.7273366	-0.5476657	-0.41394085	0.4258814	0.54861754
-0.06708007	0.17926307	0.4868367	0.23707873	-0.093983635	-0.14954789	-0.26899818	0.07069352	0.29936326	0.35269842	-0.19227673	0.13157173	0.25702855	0.21859749	-0.025488466	-0.4135491
0.5394597	-0.47240305	0.5068597	-0.9905691	0.97011375	-1.1554894	-0.9269429	1.0924319	0.8575769	0.7692764	-0.95771253	-0.7456619	-0.7427098	-0.8645379	-1.2079675	-0.6864903
0.2079079	-0.17318921	0.4600788	0.566299	-0.27459818	-0.4942728	-0.4925383	0.35047	-0.18919976	0.1441736	-0.1565584	-0.021592423	0.57784605	0.573977	0.48829398	-0.66727656
-0.21148893	-0.44282383	-0.0243396	0.14189923	0.37146696	-0.09995133	-0.51229525	0.17671545	-0.17892523	-0.22571678	-0.4938148	0.21537672	0.30982783	0.1981775	0.04144311	-0.4005785
-0.55764246	0.2876196	0.3131757	0.24247347	-0.34567076	0.47734806	0.18548365	-0.4814823	-0.038806226	0.27738547	0.21093385	0.5184789	0.1337164	0.30217904	-0.11701415	-0.07941889
0.28033248	0.28289682	-0.12135304	-0.09459628	-0.350242	0.07238415	0.40651685	0.0033852796	-0.13769564	-0.10383343	0.3834153	-0.2760356	-0.20275506	-0.08038718	0.19640319	0.28540552
-0.14033341	-0.34064862	-0.5342297	-0.057417694	0.11921994	0.29108825	-0.068997085	-0.21509318	-0.58815736	-0.46070307	-0.15332267	0.004300859	0.04167708	-0.03809797	0.16571707	0.012925843
-0.38287017	0.5010219	0.63438934	-0.6576863	0.21960737	0.05455258	0.1242297	-0.08746591	0.72767437	0.80012983	-0.008700693	0.32044768	-0.6537556	-0.5086658	-0.9915014	0.116280645
-0.2915805	-0.1948047	-0.20105185	0.15108965	-0.039911468	0.3586458	-0.026244884	-0.27779847	-0.3118916	-0.28467268	-0.10235707	0.30582944	0.13901442	0.18178993	0.02413304	-0.14353314
0.5692478	0.4584473	-0.3194904	-0.20055303	-0.7241018	0.14092585	0.90822417	-0.05580284	-0.34924024	-0.108484134	0.8682335	-0.49746048	-0.44160512	-0.2949252	0.24020176	0.6948366
0.33699006	0.084276214	0.3942008	-0.6395825	0.5139075	-0.60322005	-0.3081311	0.5116785	0.71340543	0.67274374	-0.3416101	-0.38284135	-0.579907	-0.54020804	-0.6956036	-0.029468637
0.08961515	-0.26932746	0.23193718	0.057736497	0.24514131	-0.55699	-0.5291853	0.47396109	0.12870729	0.045283884	-0.4020276	-0.07624553	0.22131579	0.064734854	0.07132211	-0.41193008
-0.99374217	-0.31951922	-0.51700205	-0.08011955	0.3329548	1.0289006	-0.2837864	-0.96476185	-0.60990465	-0.42310053	-0.43327177	1.05716	0.34847286	0.41805053	-0.43046048	-0.3810893
-0.27174807	0.40498108	0.38101295	-0.51818365	0.031157479	0.17505598	0.36196575	-0.19587812	0.6334119	0.81326383	0.17736828	0.09718925	-0.5219214	-0.29264113	-0.7146418	0.3473786
-0.03851956	-0.4803532	-0.62257546	-0.34300855	0.45594442	0.08947696	-0.16213292	0.08828141	-0.44764733	-0.56255144	-0.2557023	-0.12858707	-0.03774068	-0.27319112	0.0025529037	0.013071742
0.07218429	-0.5257793	-0.6297231	-0.33823243	0.44817942	-0.028075976	-0.11500811	0.23440164	-0.45061734	-0.7122423	-0.18393008	-0.2141369	-0.16148585	-0.30309507	0.102492824	0.07396626
-0.09847604	-0.67696124	-0.52406955	-0.21496515	0.5044043	-0.19032182	-0.35282558	0.2030762	-0.2013034	-0.48019472	-0.3785522	0.005462273	0.030165484	-0.11760002	-0.076554626	-0.09022069
0.38500977	0.50445974	-0.38371515	-0.37701806	-0.46882623	0.15178075	0.8044271	-0.056623045	-0.29034877	-0.062789306	0.77113175	-0.43648314	-0.6102978	-0.42344892	0.0046618767	0.6340732
-0.2885482	-0.504839	-0.77288264	-0.23575747	0.5172637	0.485418	-0.34748304	-0.40784323	-0.671301	-0.8090608	-0.36039102	0.25482818	0.23888288	-0.043604184	-0.073925555	-0.20943569
0.31227124	0.045797504	0.5085254	0.6696086	-0.50408936	-0.50194067	-0.13461015	0.28555304	-0.3831512	0.30601	0.22190428	-0.021315837	0.6443353	0.66750187	0.5663502	-0.6073797
0.24817196	0.29649588	-0.07104185	-0.5566851	0.05499173	-0.09244585	0.29194465	0.14732933	0.31864354	0.28265643	0.23283094	-0.2802499	-0.56908697	-0.52164865	-0.41755936	0.34798196
0.00024689664	0.027473897	-0.27818507	-0.42265543	0.022092445	0.124380484	0.17576012	-0.08736742	-0.14168318	-0.06502197	0.13426729	-0.077227704	-0.32387286	-0.36011687	-0.3182975	0.2018844
-0.25797534	-0.2329483	-0.081437305	0.25171435	-0.062983766	0.24634625	-0.1581603	-0.25183216	-0.3485029	-0.21817106	-0.119722016	0.30951104	0.32777485	0.2943294	0.16303195	-0.21564633
0.6129567	0.14564773	-0.68914264	-0.49831054	-0.3632772	-0.165778	0.717826	0.44121554	-0.51082	-0.66014576	0.66214025	-0.7351625	-0.66398144	-0.5630535	0.45698178	0.56200385
0.11688391	0.36948675	0.30930066	0.10848889	-0.3054617	0.051838644	0.34093812	-0.060637597	0.20431803	0.39765006	0.3412696	-0.0701291	-0.043102946	0.07155315	0.0036323518	0.14957243
-1.0943552	1.0107473	0.8307092	-0.8101891	-0.879353	1.1830688	1.0289812	-1.0523652	0.45156416	0.97723866	0.91859484	0.8322352	-1.0659008	-0.4267728	-1.0202491	0.85823846
0.77490896	-0.25364757	0.6325804	-1.1935172	1.0794802	-1.1970431	-0.8514119	1.0903468	0.97622246	1.0195231	-0.97225356	-0.88972	-0.9569037	-1.0599138	-1.1575482	-0.44674706
-0.41208392	0.21763612	0.14817806	0.06734994	-0.22266993	0.429155	0.1730433	-0.48440647	-0.086044505	0.16861163	0.06532396	0.33662933	0.051846154	0.17462431	-0.23648812	-0.016095383
-0.21285705	-0.28199175	-0.35273668	-0.2349719	0.25986665	0.2040333	-0.2133563	-0.08042588	-0.27236864	-0.2823237	-0.29524097	0.05541094	-0.084870264	-0.16906169	-0.1456596	-0.09470801
0.2681647	-0.22037293	-0.29926726	-0.15738384	0.30288	-0.4307956	-0.08612241	0.5321222	-0.112728804	-0.31184763	-0.024183823	-0.342807	-0.17496276	-0.25298697	0.07210768	0.08547943
-0.22468404	-0.6315374	-0.055645064	0.47842044	0.044698216	-0.04303489	-0.52531	0.0684769	-0.66126746	-0.56120485	-0.36159033	0.2029758	0.6016708	0.4595297	0.53925097	-0.5251363
-0.37974298	0.17239918	0.1857004	0.0013268833	-0.08040028	0.38987237	0.20965567	-0.3294619	0.095320426	0.21210435	0.027531093	0.38359052	-0.07893969	0.06697843	-0.33062065	-0.06924045
-0.57224894	-0.73219275	-0.3583925	-0.20506856	0.6779274	0.054397818	-0.9972418	-0.02372657	-0.20804873	-0.31649226	-0.86398387	0.5940911	0.5401747	-0.05411275	-0.3701238	-0.8209207
-0.13646267	0.10819207	-0.0141118	-0.05193574	-0.13907917	0.21746588	0.102945864	-0.22715962	-0.18329865	-0.008154549	0.042685833	0.09147709	-0.08833489	0.0046324227	-0.15197596	-0.015731325
0.5726712	0.16989298	-0.7311537	-0.7361546	-0.24247016	-0.01972212	0.59336996	0.30455622	-0.28743717	-0.5308555	0.5162208	-0.58617663	-0.71903044	-0.67515504	0.21585289	0.62936765
-0.19432776	-0.1794297	-0.098192796	0.21631707	-0.10738549	0.36635396	-0.023701582	-0.3287927	-0.49237725	-0.3371006	-0.10107894	0.20448436	0.22024496	0.27700418	0.25027207	-0.14300114
0.6825926	0.034074135	-0.43612587	-0.6559378	0.18122871	-0.60238504	0.30976173	0.67944515	0.12988429	-0.24712305	0.3022909	-0.7058905	-0.6131879	-0.6751555	-0.02619521	0.45402607
-0.081735104	0.019871946	0.2244164	0.3922415	-0.1476835	-0.09515264	-0.061483957	0.015399258	-0.12535237	0.058800172	0.052768487	0.03377289	0.2875649	0.3120758	0.19944537	-0.24184231
-0.24316113	-0.5198092	-0.62403744	-0.4094409	0.60960984	0.11316113	-0.38028738	-0.0032280749	-0.45341578	-0.6394334	-0.36513522	0.048402786	0.019073572	-0.28251177	-0.2204354	-0.07325629
0.07784652	0.062613554	-0.48990822	-0.40583465	-0.12607422	0.47480375	0.30101493	-0.28749752	-0.4197176	-0.32247597	0.18141188	-0.08097336	-0.3548585	-0.323995	-0.047283396	0.3117421
0.21539958	-0.22166738	-0.6010978	-0.2374898	-0.12909444	0.20171307	0.25467786	-0.059398886	-0.7325414	-0.52711093	0.1883191	-0.32813114	-0.22442083	-0.223611	0.32744625	0.25674424
-0.0016918115	-0.29075766	-0.37328285	-0.15540344	0.37942111	-0.10104692	-0.18544923	0.14333576	-0.05174403	-0.22426221	-0.27083275	-0.047678337	-0.032791283	-0.19897147	-0.009987309	-0.069484085
-0.25563857	-0.03343479	0.07869141	-0.3255819	0.39585266	-0.10516283	-0.20653343	0.13912535	0.45782632	0.35256773	-0.35194454	0.15053703	-0.21630509	-0.37005502	-0.56694424	-0.119631596
-0.46164566	0.5068206	0.10983479	-0.59527636	-0.19657944	0.6418132	0.529678	-0.61080843	0.22892313	0.38640666	0.357827	0.34607142	-0.7133785	-0.3845319	-0.7814096	0.5485578
0.35705242	-0.45592484	-0.037415527	-0.6564694	0.6482838	-0.62555593	-0.54465574	0.6328323	0.3902987	0.2660754	-0.45769772	-0.3851078	-0.37594903	-0.6415428	-0.6623237	-0.15416065
0.111826815	0.23285557	0.38642174	0.335988	-0.2717136	-0.19191712	0.10515681	0.10686897	0.0603108	0.25238106	0.21298324	0.01024628	0.1497227	0.2852778	0.084706515	-0.14044628
-0.5974519	-0.23246409	-0.24567968	-0.074324094	0.22878371	0.57475495	-0.18008861	-0.4413728	-0.35526767	-0.28256178	-0.28969395	0.5531628	0.07162853	0.038378946	-0.32756746	-0.20392217
-0.29741412	-0.029677574	0.1262345	0.20267394	-0.06829857	0.29492474	-0.03418293	-0.30109924	-0.13189119	-0.020798573	-0.06933426	0.2973596	0.20859672	0.29526052	-0.06520571	-0.17312549
-0.18222873	-0.35981616	-0.21879861	0.30306086	0.08076323	0.06857152	-0.32183087	-0.09762325	-0.3230105	-0.3489576	-0.35649493	0.19479568	0.36730117	0.30030936	0.17747298	-0.41389373
-0.69618493	0.91213626	0.6961549	-0.46314543	-0.68541825	0.763273	0.86723065	-0.778967	0.62727153	0.8399624	0.7903765	0.6577045	-0.89042825	-0.24907427	-0.9778004	0.7186065
-0.30592	-0.3546245	-0.5118025	-0.20992969	0.31030273	0.4177732	-0.18341471	-0.31592476	-0.48818606	-0.48228467	-0.29852602	0.24765624	0.045684814	-0.097092554	-0.12424239	-0.03689018
0.45582223	-0.368484	0.6336951	-0.9917136	1.0518517	-1.1323868	-0.96346736	1.0258297	0.9455158	0.89014745	-0.98001957	-0.6002022	-0.5861494	-0.8422856	-1.1259471	-0.6544647
-0.6896858	-0.8531919	-0.8252264	-0.099278904	0.783743	0.58218336	-0.9045526	-0.52539694	-0.76586145	-0.85425556	-0.8205306	0.82735693	0.76633257	0.32804596	-0.24557568	-0.6494945
0.5146369	-0.06062961	0.60220087	0.8044953	-0.49155745	-0.77674985	-0.21228242	0.62757355	-0.17205857	0.31946543	0.16972378	-0.29772735	0.66629	0.6854328	0.6239608	-0.5605665
0.17008412	-0.22140321	-0.31514862	-0.48731157	0.44473612	-0.3145565	-0.16825378	0.42130774	-0.13624328	-0.16276233	-0.12423037	-0.29496256	-0.30315128	-0.42273253	-0.29399654	0.030215366
0.38632905	-0.18068355	-0.76357406	-0.54620034	-0.04530227	0.09568683	0.42678487	0.15484852	-0.58187526	-0.7786805	0.33885524	-0.50738835	-0.5236194	-0.5384617	0.5643612	0.46851274
-0.072934695	-0.31007397	0.113218695	-0.56956303	0.70840895	-0.41818273	-0.6690899	0.483662	0.2040234	0.1009944	-0.62624454	-0.049047507	-0.059122656	-0.4564742	-0.7720839	-0.5145176
-0.2122491	-0.29719955	0.1272189	0.16535191	0.19136922	-0.10355593	-0.41804945	0.07725587	-0.12661123	-0.06740698	-0.35871187	0.19155015	0.27037576	0.17414789	0.010407785	-0.4206447
-0.15169875	-0.4341425	-0.345678	0.2743328	0.046642635	0.29660675	-0.16692407	-0.20339708	-0.5704766	-0.50520164	-0.12380954	0.1435929	0.25941247	0.23005004	0.41095963	-0.13150622
-0.116951525	-0.44805965	-0.11241521	0.26483464	0.25275105	-0.12050526	-0.42884505	0.11782063	-0.39802074	-0.34620005	-0.40965205	0.15049215	0.37117863	0.2424832	0.17447649	-0.439962
-0.5957452	0.57120126	0.582605	-0.320644	-0.17556052	0.45332885	0.3721121	-0.47204494	0.45097542	0.78736645	0.20050576	0.5246698	-0.45070755	-0.12558301	-0.8628956	0.11696003
0.57283753	0.39924395	-0.5450127	-0.8110613	-0.42939058	0.12237672	1.0565234	0.006162031	-0.29687715	-0.14038041	0.9329618	-0.57769907	-0.9512652	-0.77654684	-0.092219174	0.8736235
-0.1705216	-0.123475105	-0.11602563	0.28979698	-0.09487338	0.18934382	-0.05680958	-0.19073398	-0.26294243	-0.20159136	0.035953846	0.16348116	0.27371076	0.244074	0.25236645	-0.060360003
-0.6724635	-0.6316293	-0.86096966	0.111116715	0.6410822	0.73605675	-0.78589076	-0.91694504	-0.70684785	-0.8274089	-0.6845208	0.76339823	0.79427594	0.6844679	-0.07715258	-0.5653841
0.07369802	0.03545587	0.43433544	-0.791968	0.6101932	-0.4255353	-0.36337224	0.43983632	0.6878121	0.6635993	-0.453826	-0.19371413	-0.674791	-0.6586384	-0.9594843	-0.1388983
0.101796016	0.23831998	0.40639815	-0.06785378	0.16330105	-0.48871714	-0.13976012	0.3389344	0.5410177	0.5390919	-0.089573234	-0.16899467	-0.085560925	-0.13978693	-0.24942224	-0.15904993
0.11505533	-0.013349883	-0.06591204	0.24613445	-0.3312295	0.15703008	0.15275551	-0.15963829	-0.4309536	-0.197756	0.1995658	-0.0062015606	0.15666968	0.20904228	0.43488166	0.023962362
0.41684482	0.12941326	-0.2998017	-0.112308785	-0.20810796	-0.15562764	0.31219327	0.26081192	-0.31606498	-0.27432257	0.34316108	-0.46408755	-0.25456256	-0.23695931	0.32252833	0.22059283
0.26307586	0.27199858	0.057279177	0.28269863	-0.5852269	-0.022926357	0.38225383	0.051533174	-0.2538145	0.07605653	0.4224831	-0.21528076	0.07059881	0.21688592	0.34182918	0.07933573
0.16797271	-0.15569283	-0.2670015	0.114208594	-0.17207068	-0.06609633	0.12392179	0.06850911	-0.27548578	-0.31240025	0.24029915	-0.19583437	0.027250942	0.048617784	0.3656153	0.06708953
0.060290113	0.5530596	0.6722088	0.41707346	-0.60532933	-0.11872909	0.41682446	-0.053321816	0.30577928	0.71902794	0.5903739	0.062353685	0.2021046	0.4052049	0.22759132	-0.13148886
0.7408286	-0.4712642	0.6782145	-1.0924183	0.9854262	-1.1722273	-0.9170915	1.044966	0.9719207	0.84339523	-0.95483935	-0.88829726	-0.8944143	-1.0131474	-1.0722574	-0.61904997
0.17245622	-0.5216291	-0.5445463	-0.2307272	0.40944746	-0.10180466	-0.13007988	0.28943697	-0.32827064	-0.5704622	-0.11987412	-0.2585578	-0.046348143	-0.2502305	0.22563319	0.05497438
-1.0865593	0.9172066	0.9103477	-0.2816213	-0.82187307	1.1168684	0.9191798	-0.9403347	0.42345876	0.9232197	0.85934335	0.8693971	-0.771671	0.14387846	-0.96753293	0.58429146
-0.018828142	-0.38165662	-0.39598733	0.06524066	0.26594785	0.095474504	-0.12406139	-0.017764984	-0.42800605	-0.4331447	-0.22402526	-0.016917724	0.094025284	0.018366445	0.13655868	-0.062682904
-0.11624634	-0.18718678	0.27468437	0.5637844	-0.35128486	0.15120631	-0.2509749	-0.15570787	-0.43670246	-0.122766845	-0.06452606	0.23345022	0.57042587	0.61192983	0.36942938	-0.50879836
-0.3809558	-0.0066771526	-0.14079812	0.013443566	0.05460278	0.6205968	-0.012774738	-0.55272734	-0.28899017	-0.123167016	-0.06777004	0.3890544	0.0857733	0.08536325	-0.21601295	-0.051390808
0.8588767	0.51068866	-0.74314344	-0.7491443	-0.79219985	-0.42896155	0.897971	0.63485056	-0.5305517	-0.7603871	0.8930067	-0.8329315	-0.806517	-0.74149144	0.7192143	0.8060841
-0.19137852	-0.71967506	-0.96159416	-0.32814285	0.51587045	0.61354727	-0.29734337	-0.2906958	-0.9446609	-1.1409265	-0.2817567	0.07649691	0.042077005	-0.2214351	0.34897012	-0.06686775
-0.5634335	-0.5868001	-0.2826369	0.30835578	0.35699755	0.2068887	-0.7323839	-0.23466	-0.64033806	-0.63083494	-0.60982955	0.65387833	0.59480083	0.38601956	0.14389405	-0.6885504
-0.16749598	-0.08919886	-0.25033703	-0.34259063	0.24990723	0.23253693	0.050121475	-0.12562293	-0.1525276	-0.156289	-0.1014527	0.02784293	-0.23581176	-0.24493614	-0.4169375	0.12466131
-0.073140375	-0.38138923	-0.51600313	-0.4319203	0.51373935	0.07833971	-0.19998258	0.027564809	-0.32167417	-0.41310453	-0.26943865	-0.03339203	-0.12881066	-0.32109714	-0.25662014	-0.07794305
-0.22396183	0.24490166	0.29077533	0.45541885	-0.45751372	0.21802893	0.2063651	-0.29356557	-0.031866193	0.25404635	0.25026736	0.26577502	0.32016188	0.4521277	0.21107364	-0.14003935
0.036214538	-0.17707999	-0.15901388	0.04808858	0.042199563	-0.06827417	-0.04142603	0.10976853	-0.21102221	-0.12220166	-0.051362902	-0.05822214	0.11532254	0.091279134	0.13830246	-0.028796012
-0.13078302	0.15022458	0.16053483	0.06612931	-0.15801822	0.110870264	0.1422917	-0.10667147	-0.020162601	0.17147118	0.05298233	0.1504921	0.107650705	0.15690178	-0.0790608	-0.04002863
-0.16486298	-0.5467533	-0.23580982	-0.3887879	0.71933824	-0.20617484	-0.6066478	0.27336442	0.07589628	-0.1522065	-0.6920289	0.14203747	-0.022935791	-0.31589654	-0.58387357	-0.3601547
0.36311656	-0.3311277	-0.07876071	-0.6258477	0.5690344	-0.757719	-0.3421313	0.6596426	0.4095138	0.23630463	-0.26544422	-0.45887357	-0.37745664	-0.6197261	-0.46332768	-0.004648251
0.54798573	0.15342537	-0.092823215	-0.29081085	-0.006313045	-0.5842386	0.32554793	0.6005604	0.15933996	0.008916199	0.35496876	-0.5457812	-0.39267033	-0.4008897	0.06299272	0.31421638
-0.52537274	-0.019535441	0.24539384	0.4302066	-0.13369197	0.39409134	-0.20773064	-0.42166123	-0.17920062	0.11903244	-0.22043268	0.5455673	0.4561849	0.5240432	-0.053746328	-0.39629468
-0.4151357	-0.14660756	0.0121966	-0.01930136	0.30530044	0.0797673	-0.32174557	-0.13768756	-0.0045463126	0.030126696	-0.39021403	0.35644096	0.1328508	0.1006662	-0.34226096	-0.23938672
-0.015709957	-0.051141188	-0.020743066	-0.048635777	0.08030802	-0.0391567	-0.019084344	0.08709364	-0.13135165	-0.0673075	0.004891239	-0.10051756	0.0030641397	-0.06991288	-0.023008851	0.013653689
-0.64652085	-0.8567017	-0.96263504	0.04274483	0.65108275	0.7948371	-0.6289054	-0.66032386	-0.9442869	-1.0304266	-0.56725436	0.5791078	0.53785276	0.19596778	0.20642255	-0.43920398
-0.23915665	0.08448127	0.5706332	0.6431669	-0.42526338	-0.00771456	-0.17732705	-0.15971361	-0.11036657	0.27931195	0.045781776	0.38577765	0.56762296	0.58206487	0.31073418	-0.5055661
0.36449698	0.1298642	0.004227063	0.16452874	-0.39372054	-0.16423807	0.29432845	0.10133806	-0.213053	-0.015331909	0.40785953	-0.23139267	0.085426375	0.16350968	0.35118526	0.081274204
-0.114231	-0.3249126	0.0976188	0.18968469	0.31622335	-0.26822895	-0.47898966	0.24512023	-0.08391716	-0.10236691	-0.40031856	0.06380131	0.34123668	0.2049063	0.056129854	-0.4537295
